{"learner":{"attributes":{},"feature_names":[],"feature_types":[],"gradient_booster":{"model":{"cats":{"enc":[],"feature_segments":[],"sorted_idx":[]},"gbtree_model_param":{"num_parallel_tree":"1","num_trees":"100"},"iteration_indptr":[0,1,2,3,4,5,6,7,8,9,10,11,12,13,14,15,16,17,18,19,20,21,22,23,24,25,26,27,28,29,30,31,32,33,34,35,36,37,38,39,40,41,42,43,44,45,46,47,48,49,50,51,52,53,54,55,56,57,58,59,60,61,62,63,64,65,66,67,68,69,70,71,72,73,74,75,76,77,78,79,80,81,82,83,84,85,86,87,88,89,90,91,92,93,94,95,96,97,98,99,100],"tree_info":[0,0,0,0,0,0,0,0,0,0,0,0,0,0,0,0,0,0,0,0,0,0,0,0,0,0,0,0,0,0,0,0,0,0,0,0,0,0,0,0,0,0,0,0,0,0,0,0,0,0,0,0,0,0,0,0,0,0,0,0,0,0,0,0,0,0,0,0,0,0,0,0,0,0,0,0,0,0,0,0,0,0,0,0,0,0,0,0,0,0,0,0,0,0,0,0,0,0,0,0],"trees":[{"base_weights":[-2.745301E-8,-2.6164138E-1,1.0368104E0,-8.507038E-2,7.5004905E-2,1.2245711E-1,-8.1728965E-2],"categories":[],"categories_nodes":[],"categories_segments":[],"categories_sizes":[],"default_left":[0,0,0,0,0,0,0],"id":0,"left_children":[1,3,5,-1,-1,-1,-1],"loss_changes":[3.3253796E1,5.8971554E1,9.599949E0,0E0,0E0,0E0,0E0],"parents":[2147483647,0,0,1,1,2,2],"right_children":[2,4,6,-1,-1,-1,-1],"split_conditions":[2.021811E0,1.5089189E0,1E0,-8.507038E-2,7.5004905E-2,1.2245711E-1,-8.1728965E-2],"split_indices":[29,30,16,0,0,0,0],"split_type":[0,0,0,0,0,0,0],"sum_hessian":[1.2058448E2,9.688339E1,2.3701088E1,6.1331764E1,3.5551632E1,2.1829948E1,1.8711386E0],"tree_param":{"num_deleted":"0","num_feature":"39","num_nodes":"7","size_leaf_vector":"1"}},{"base_weights":[1.9174685E-3,1.1223377E-1,-2.1679676E0,2.4446102E-2,-1.6898231E-1,-2.3272622E-2,-2.5402465E-1],"categories":[],"categories_nodes":[],"categories_segments":[],"categories_sizes":[],"default_left":[0,0,0,0,0,0,0],"id":1,"left_children":[1,3,5,-1,-1,-1,-1],"loss_changes":[2.932172E1,2.818492E1,3.6784115E0,0E0,0E0,0E0,0E0],"parents":[2147483647,0,0,1,1,2,2],"right_children":[2,4,6,-1,-1,-1,-1],"split_conditions":[1E0,1E0,-4.7765228E-1,2.4446102E-2,-1.6898231E-1,-2.3272622E-2,-2.5402465E-1],"split_indices":[15,26,35,0,0,0,0],"split_type":[0,0,0,0,0,0,0],"sum_hessian":[1.20477005E2,1.1555072E2,4.9262877E0,1.08456955E2,7.0937657E0,1.0569607E0,3.8693268E0],"tree_param":{"num_deleted":"0","num_feature":"39","num_nodes":"7","size_leaf_vector":"1"}},{"base_weights":[-9.848686E-4,-2.3028274E-1,9.6745765E-1,-7.218374E-2,6.831939E-2,1.1579889E-1,-7.679729E-2],"categories":[],"categories_nodes":[],"categories_segments":[],"categories_sizes":[],"default_left":[0,0,0,0,0,0,0],"id":2,"left_children":[1,3,5,-1,-1,-1,-1],"loss_changes":[2.7120884E1,4.4833096E1,8.620457E0,0E0,0E0,0E0,0E0],"parents":[2147483647,0,0,1,1,2,2],"right_children":[2,4,6,-1,-1,-1,-1],"split_conditions":[2.021811E0,1.5089189E0,1E0,-7.218374E-2,6.831939E-2,1.1579889E-1,-7.679729E-2],"split_indices":[29,30,16,0,0,0,0],"split_type":[0,0,0,0,0,0,0],"sum_hessian":[1.2012887E2,9.7747444E1,2.2381422E1,6.3686584E1,3.406086E1,2.0467096E1,1.9143255E0],"tree_param":{"num_deleted":"0","num_feature":"39","num_nodes":"7","size_leaf_vector":"1"}},{"base_weights":[7.530655E-4,-2.0514247E-1,9.1753393E-1,-6.338534E-2,6.371821E-2,1.1091285E-1,-7.0348375E-2],"categories":[],"categories_nodes":[],"categories_segments":[],"categories_sizes":[],"default_left":[0,0,0,0,0,0,0],"id":3,"left_children":[1,3,5,-1,-1,-1,-1],"loss_changes":[2.2956686E1,3.626838E1,7.707443E0,0E0,0E0,0E0,0E0],"parents":[2147483647,0,0,1,1,2,2],"right_children":[2,4,6,-1,-1,-1,-1],"split_conditions":[2.021811E0,1.5089189E0,1E0,-6.338534E-2,6.371821E-2,1.1091285E-1,-7.0348375E-2],"split_indices":[29,30,16,0,0,0,0],"split_type":[0,0,0,0,0,0,0],"sum_hessian":[1.19620514E2,9.8316345E1,2.1304173E1,6.531898E1,3.2997364E1,1.9334707E1,1.9694641E0],"tree_param":{"num_deleted":"0","num_feature":"39","num_nodes":"7","size_leaf_vector":"1"}},{"base_weights":[2.176607E-3,9.960873E-2,-1.7374647E0,2.1378066E-2,-1.2977481E-1,-1.8049058E-2,-2.0208836E-1],"categories":[],"categories_nodes":[],"categories_segments":[],"categories_sizes":[],"default_left":[0,0,0,0,0,0,0],"id":4,"left_children":[1,3,5,-1,-1,-1,-1],"loss_changes":[2.049319E1,1.8540237E1,2.4649353E0,0E0,0E0,0E0,0E0],"parents":[2147483647,0,0,1,1,2,2],"right_children":[2,4,6,-1,-1,-1,-1],"split_conditions":[1E0,1E0,-4.7765228E-1,2.1378066E-2,-1.2977481E-1,-1.8049058E-2,-2.0208836E-1],"split_indices":[15,26,35,0,0,0,0],"split_type":[0,0,0,0,0,0,0],"sum_hessian":[1.1888491E2,1.13472404E2,5.412509E0,1.056844E2,7.7880006E0,1.0855923E0,4.3269167E0],"tree_param":{"num_deleted":"0","num_feature":"39","num_nodes":"7","size_leaf_vector":"1"}},{"base_weights":[-4.5775902E-4,-1.8287158E-1,8.6122334E-1,-5.4807104E-2,5.79425E-2,1.05670206E-1,-6.6329084E-2],"categories":[],"categories_nodes":[],"categories_segments":[],"categories_sizes":[],"default_left":[0,0,0,0,0,0,0],"id":5,"left_children":[1,3,5,-1,-1,-1,-1],"loss_changes":[1.89068E1,2.7952938E1,6.9636354E0,0E0,0E0,0E0,0E0],"parents":[2147483647,0,0,1,1,2,2],"right_children":[2,4,6,-1,-1,-1,-1],"split_conditions":[2.021811E0,1.5089189E0,1E0,-5.4807104E-2,5.79425E-2,1.05670206E-1,-6.6329084E-2],"split_indices":[29,30,16,0,0,0,0],"split_type":[0,0,0,0,0,0,0],"sum_hessian":[1.1828364E2,9.826845E1,2.0015192E1,6.662899E1,3.1639452E1,1.8012434E1,2.0027585E0],"tree_param":{"num_deleted":"0","num_feature":"39","num_nodes":"7","size_leaf_vector":"1"}},{"base_weights":[9.0919615E-4,-1.6379088E-1,8.196884E-1,-4.8604622E-2,5.3962868E-2,1.0166152E-1,-6.0994226E-2],"categories":[],"categories_nodes":[],"categories_segments":[],"categories_sizes":[],"default_left":[0,0,0,0,0,0,0],"id":6,"left_children":[1,3,5,-1,-1,-1,-1],"loss_changes":[1.609761E1,2.2791037E1,6.2480755E0,0E0,0E0,0E0,0E0],"parents":[2147483647,0,0,1,1,2,2],"right_children":[2,4,6,-1,-1,-1,-1],"split_conditions":[2.021811E0,1.5089189E0,1E0,-4.8604622E-2,5.3962868E-2,1.0166152E-1,-6.0994226E-2],"split_indices":[29,30,16,0,0,0,0],"split_type":[0,0,0,0,0,0,0],"sum_hessian":[1.1737597E2,9.838538E1,1.8990582E1,6.768575E1,3.0699635E1,1.6945318E1,2.0452633E0],"tree_param":{"num_deleted":"0","num_feature":"39","num_nodes":"7","size_leaf_vector":"1"}},{"base_weights":[2.0554578E-3,8.901071E-2,-1.4736106E0,1.6778164E-2,-1.440357E-1,-1.411853E-2,-1.7144482E-1],"categories":[],"categories_nodes":[],"categories_segments":[],"categories_sizes":[],"default_left":[0,0,0,0,0,0,0],"id":7,"left_children":[1,3,5,-1,-1,-1,-1],"loss_changes":[1.5193194E1,1.3709283E1,1.8723087E0,0E0,0E0,0E0,0E0],"parents":[2147483647,0,0,1,1,2,2],"right_children":[2,4,6,-1,-1,-1,-1],"split_conditions":[1E0,1E0,-4.7765228E-1,1.6778164E-2,-1.440357E-1,-1.411853E-2,-1.7144482E-1],"split_indices":[15,20,35,0,0,0,0],"split_type":[0,0,0,0,0,0,0],"sum_hessian":[1.1638146E2,1.10792564E2,5.5888934E0,1.0621233E2,4.580231E0,1.0983788E0,4.4905148E0],"tree_param":{"num_deleted":"0","num_feature":"39","num_nodes":"7","size_leaf_vector":"1"}},{"base_weights":[-6.3328235E-4,-1.4844944E-1,7.745448E-1,-4.2721126E-2,4.903188E-2,9.7513594E-2,-5.7504028E-2],"categories":[],"categories_nodes":[],"categories_segments":[],"categories_sizes":[],"default_left":[0,0,0,0,0,0,0],"id":8,"left_children":[1,3,5,-1,-1,-1,-1],"loss_changes":[1.3506605E1,1.7836784E1,5.6712112E0,0E0,0E0,0E0,0E0],"parents":[2147483647,0,0,1,1,2,2],"right_children":[2,4,6,-1,-1,-1,-1],"split_conditions":[2.021811E0,1.5089189E0,1E0,-4.2721126E-2,4.903188E-2,9.7513594E-2,-5.7504028E-2],"split_indices":[29,30,16,0,0,0,0],"split_type":[0,0,0,0,0,0,0],"sum_hessian":[1.1587184E2,9.7994156E1,1.7877687E1,6.845238E1,2.954178E1,1.5805886E1,2.071801E0],"tree_param":{"num_deleted":"0","num_feature":"39","num_nodes":"7","size_leaf_vector":"1"}},{"base_weights":[5.415876E-4,7.953328E-2,-1.3218477E0,1.7804412E-2,-1.06106356E-1,-1.2151969E-2,-1.5411438E-1],"categories":[],"categories_nodes":[],"categories_segments":[],"categories_sizes":[],"default_left":[0,0,0,0,0,0,0],"id":9,"left_children":[1,3,5,-1,-1,-1,-1],"loss_changes":[1.2205362E1,1.2576985E1,1.5463934E0,0E0,0E0,0E0,0E0],"parents":[2147483647,0,0,1,1,2,2],"right_children":[2,4,6,-1,-1,-1,-1],"split_conditions":[1E0,1E0,-4.7765228E-1,1.7804412E-2,-1.06106356E-1,-1.2151969E-2,-1.5411438E-1],"split_indices":[15,23,35,0,0,0,0],"split_type":[0,0,0,0,0,0,0],"sum_hessian":[1.1483849E2,1.09252266E2,5.586226E0,1.0134337E2,7.908901E0,1.1030052E0,4.483221E0],"tree_param":{"num_deleted":"0","num_feature":"39","num_nodes":"7","size_leaf_vector":"1"}},{"base_weights":[-1.5573362E-3,-1.3336499E-1,7.2957E-1,-3.7916683E-2,4.5149058E-2,9.343533E-2,-5.441294E-2],"categories":[],"categories_nodes":[],"categories_segments":[],"categories_sizes":[],"default_left":[0,0,0,0,0,0,0],"id":10,"left_children":[1,3,5,-1,-1,-1,-1],"loss_changes":[1.1215896E1,1.43456E1,5.145358E0,0E0,0E0,0E0,0E0],"parents":[2147483647,0,0,1,1,2,2],"right_children":[2,4,6,-1,-1,-1,-1],"split_conditions":[2.021811E0,1.5089189E0,1E0,-3.7916683E-2,4.5149058E-2,9.343533E-2,-5.441294E-2],"split_indices":[29,30,16,0,0,0,0],"split_type":[0,0,0,0,0,0,0],"sum_hessian":[1.1437623E2,9.759872E1,1.677751E1,6.896567E1,2.8633049E1,1.4683195E1,2.094315E0],"tree_param":{"num_deleted":"0","num_feature":"39","num_nodes":"7","size_leaf_vector":"1"}},{"base_weights":[-3.9059875E-4,7.140668E-2,-1.2033333E0,1.6828544E-2,-1.0005595E-1,-1.0436308E-2,-1.4093137E-1],"categories":[],"categories_nodes":[],"categories_segments":[],"categories_sizes":[],"default_left":[0,0,0,0,0,0,0],"id":11,"left_children":[1,3,5,-1,-1,-1,-1],"loss_changes":[9.961255E0,1.1471922E1,1.3233948E0,0E0,0E0,0E0,0E0],"parents":[2147483647,0,0,1,1,2,2],"right_children":[2,4,6,-1,-1,-1,-1],"split_conditions":[1E0,1E0,-4.7765228E-1,1.6828544E-2,-1.0005595E-1,-1.0436308E-2,-1.4093137E-1],"split_indices":[15,26,35,0,0,0,0],"split_type":[0,0,0,0,0,0,0],"sum_hessian":[1.1334011E2,1.0784411E2,5.4960036E0,9.967868E1,8.165431E0,1.1053383E0,4.3906655E0],"tree_param":{"num_deleted":"0","num_feature":"39","num_nodes":"7","size_leaf_vector":"1"}},{"base_weights":[-2.4053457E-3,6.4279504E-2,-1.2636787E0,1.3708471E-2,-1.2322384E-1,-4.5141168E-2,-1.6423856E-1],"categories":[],"categories_nodes":[],"categories_segments":[],"categories_sizes":[],"default_left":[0,0,0,0,0,0,0],"id":12,"left_children":[1,3,5,-1,-1,-1,-1],"loss_changes":[9.636086E0,1.044357E1,1.0283184E0,0E0,0E0,0E0,0E0],"parents":[2147483647,0,0,1,1,2,2],"right_children":[2,4,6,-1,-1,-1,-1],"split_conditions":[1E0,1E0,-6.284207E-2,1.3708471E-2,-1.2322384E-1,-4.5141168E-2,-1.6423856E-1],"split_indices":[20,16,36,0,0,0,0],"split_type":[0,0,0,0,0,0,0],"sum_hessian":[1.12602486E2,1.0784941E2,4.753076E0,1.02961914E2,4.887499E0,2.2083952E0,2.5446808E0],"tree_param":{"num_deleted":"0","num_feature":"39","num_nodes":"7","size_leaf_vector":"1"}},{"base_weights":[-4.8060063E-3,-1.2455383E-1,6.956055E-1,-4.329612E-2,3.0522684E-2,9.71971E-2,-2.007371E-2],"categories":[],"categories_nodes":[],"categories_segments":[],"categories_sizes":[],"default_left":[0,0,0,0,0,0,0],"id":13,"left_children":[1,3,5,-1,-1,-1,-1],"loss_changes":[9.591254E0,1.3072018E1,4.331381E0,0E0,0E0,0E0,0E0],"parents":[2147483647,0,0,1,1,2,2],"right_children":[2,4,6,-1,-1,-1,-1],"split_conditions":[2.021811E0,-8.960127E-2,-3.3946273E-1,-4.329612E-2,3.0522684E-2,9.71971E-2,-2.007371E-2],"split_indices":[29,37,37,0,0,0,0],"split_type":[0,0,0,0,0,0,0],"sum_hessian":[1.1232183E2,9.662435E1,1.5697482E1,5.625138E1,4.0372967E1,1.1933656E1,3.7638266E0],"tree_param":{"num_deleted":"0","num_feature":"39","num_nodes":"7","size_leaf_vector":"1"}},{"base_weights":[-3.2333662E-3,7.7637576E-2,-9.2682874E-1,1.7208388E-2,-9.213726E-2,-1.6342989E-1,4.4436302E-2],"categories":[],"categories_nodes":[],"categories_segments":[],"categories_sizes":[],"default_left":[0,0,0,0,0,0,0],"id":14,"left_children":[1,3,5,-1,-1,-1,-1],"loss_changes":[8.517813E0,1.0055651E1,9.632668E0,0E0,0E0,0E0,0E0],"parents":[2147483647,0,0,1,1,2,2],"right_children":[2,4,6,-1,-1,-1,-1],"split_conditions":[1E0,1E0,1.5089189E0,1.7208388E-2,-9.213726E-2,-1.6342989E-1,4.4436302E-2],"split_indices":[23,26,30,0,0,0,0],"split_type":[0,0,0,0,0,0,0],"sum_hessian":[1.12075745E2,1.0389457E2,8.181173E0,9.5677025E1,8.217547E0,5.270146E0,2.9110277E0],"tree_param":{"num_deleted":"0","num_feature":"39","num_nodes":"7","size_leaf_vector":"1"}},{"base_weights":[-4.4577955E-3,6.217391E-2,-1.12566E0,1.30919395E-2,-1.1543649E-1,-1.0200511E-2,-1.3198423E-1],"categories":[],"categories_nodes":[],"categories_segments":[],"categories_sizes":[],"default_left":[0,0,0,0,0,0,0],"id":15,"left_children":[1,3,5,-1,-1,-1,-1],"loss_changes":[8.477321E0,9.114041E0,1.1305952E0,0E0,0E0,0E0,0E0],"parents":[2147483647,0,0,1,1,2,2],"right_children":[2,4,6,-1,-1,-1,-1],"split_conditions":[1E0,1E0,-4.7765228E-1,1.30919395E-2,-1.1543649E-1,-1.0200511E-2,-1.3198423E-1],"split_indices":[15,20,35,0,0,0,0],"split_type":[0,0,0,0,0,0,0],"sum_hessian":[1.1153652E2,1.06171425E2,5.365094E0,1.01337326E2,4.8340964E0,1.0986645E0,4.26643E0],"tree_param":{"num_deleted":"0","num_feature":"39","num_nodes":"7","size_leaf_vector":"1"}},{"base_weights":[-6.219295E-3,5.698992E-2,-1.1325866E0,-5.8824904E-3,8.568728E-2,-1.6068999E-2,-1.6291003E-1],"categories":[],"categories_nodes":[],"categories_segments":[],"categories_sizes":[],"default_left":[0,0,0,0,0,0,0],"id":16,"left_children":[1,3,5,-1,-1,-1,-1],"loss_changes":[8.036152E0,9.959784E0,2.6322813E0,0E0,0E0,0E0,0E0],"parents":[2147483647,0,0,1,1,2,2],"right_children":[2,4,6,-1,-1,-1,-1],"split_conditions":[1E0,2.021811E0,-5.023095E-1,-5.8824904E-3,8.568728E-2,-1.6068999E-2,-1.6291003E-1],"split_indices":[16,29,37,0,0,0,0],"split_type":[0,0,0,0,0,0,0],"sum_hessian":[1.109658E2,1.0596848E2,4.99731E0,9.3375175E1,1.2593308E1,2.1373022E0,2.860008E0],"tree_param":{"num_deleted":"0","num_feature":"39","num_nodes":"7","size_leaf_vector":"1"}},{"base_weights":[-6.1471937E-3,-9.09988E-2,8.125996E-1,-2.7400574E-2,3.9373003E-2,2.7360562E-2,1.2540582E-1],"categories":[],"categories_nodes":[],"categories_segments":[],"categories_sizes":[],"default_left":[0,0,0,0,0,0,0],"id":17,"left_children":[1,3,5,-1,-1,-1,-1],"loss_changes":[7.8176355E0,9.1470585E0,2.171403E0,0E0,0E0,0E0,0E0],"parents":[2147483647,0,0,1,1,2,2],"right_children":[2,4,6,-1,-1,-1,-1],"split_conditions":[1.6198133E0,1.5089189E0,1E0,-2.7400574E-2,3.9373003E-2,2.7360562E-2,1.2540582E-1],"split_indices":[37,30,7,0,0,0,0],"split_type":[0,0,0,0,0,0,0],"sum_hessian":[1.10464935E2,1.0089721E2,9.567722E0,7.35598E1,2.7337412E1,5.037283E0,4.53044E0],"tree_param":{"num_deleted":"0","num_feature":"39","num_nodes":"7","size_leaf_vector":"1"}},{"base_weights":[-3.7799503E-3,-1.0458584E-1,6.378812E-1,-3.714339E-2,2.7420372E-2,9.197021E-2,-1.975761E-2],"categories":[],"categories_nodes":[],"categories_segments":[],"categories_sizes":[],"default_left":[0,0,0,0,0,0,0],"id":18,"left_children":[1,3,5,-1,-1,-1,-1],"loss_changes":[7.2535E0,9.894543E0,3.7666836E0,0E0,0E0,0E0,0E0],"parents":[2147483647,0,0,1,1,2,2],"right_children":[2,4,6,-1,-1,-1,-1],"split_conditions":[2.021811E0,-8.960127E-2,-3.3946273E-1,-3.714339E-2,2.7420372E-2,9.197021E-2,-1.975761E-2],"split_indices":[29,37,37,0,0,0,0],"split_type":[0,0,0,0,0,0,0],"sum_hessian":[1.1010743E2,9.588134E1,1.4226089E1,5.6264076E1,3.9617264E1,1.0562315E1,3.6637733E0],"tree_param":{"num_deleted":"0","num_feature":"39","num_nodes":"7","size_leaf_vector":"1"}},{"base_weights":[-2.4210834E-3,7.149271E-2,-8.2247275E-1,1.579226E-2,-8.195194E-2,-1.1332288E-1,6.4773425E-2],"categories":[],"categories_nodes":[],"categories_segments":[],"categories_sizes":[],"default_left":[0,0,0,0,0,0,0],"id":19,"left_children":[1,3,5,-1,-1,-1,-1],"loss_changes":[6.7744107E0,8.027119E0,4.95582E0,0E0,0E0,0E0,0E0],"parents":[2147483647,0,0,1,1,2,2],"right_children":[2,4,6,-1,-1,-1,-1],"split_conditions":[1E0,1E0,4.0240848E-1,1.579226E-2,-8.195194E-2,-1.1332288E-1,6.4773425E-2],"split_indices":[26,23,35,0,0,0,0],"split_type":[0,0,0,0,0,0,0],"sum_hessian":[1.0979465E2,1.01554085E2,8.240564E0,9.332421E1,8.229869E0,6.9918985E0,1.2486655E0],"tree_param":{"num_deleted":"0","num_feature":"39","num_nodes":"7","size_leaf_vector":"1"}},{"base_weights":[-3.1280555E-3,5.7156995E-2,-1.0331104E0,1.2250702E-2,-1.02774225E-1,-1.23344265E-1,-9.791832E-3],"categories":[],"categories_nodes":[],"categories_segments":[],"categories_sizes":[],"default_left":[0,0,0,0,0,0,0],"id":20,"left_children":[1,3,5,-1,-1,-1,-1],"loss_changes":[6.912463E0,7.5857267E0,1.0324397E0,0E0,0E0,0E0,0E0],"parents":[2147483647,0,0,1,1,2,2],"right_children":[2,4,6,-1,-1,-1,-1],"split_conditions":[1E0,1E0,-3.482627E-1,1.2250702E-2,-1.02774225E-1,-1.23344265E-1,-9.791832E-3],"split_indices":[15,16,37,0,0,0,0],"split_type":[0,0,0,0,0,0,0],"sum_hessian":[1.09374214E2,1.0421877E2,5.155437E0,9.913439E1,5.0843825E0,3.983246E0,1.1721909E0],"tree_param":{"num_deleted":"0","num_feature":"39","num_nodes":"7","size_leaf_vector":"1"}},{"base_weights":[-4.868137E-3,5.3203173E-2,-1.0406561E0,1.145507E-2,-9.720007E-2,-3.1910732E-2,-1.3993512E-1],"categories":[],"categories_nodes":[],"categories_segments":[],"categories_sizes":[],"default_left":[0,0,0,0,0,0,0],"id":21,"left_children":[1,3,5,-1,-1,-1,-1],"loss_changes":[6.6634464E0,6.713917E0,1.0755496E0,0E0,0E0,0E0,0E0],"parents":[2147483647,0,0,1,1,2,2],"right_children":[2,4,6,-1,-1,-1,-1],"split_conditions":[1E0,1E0,-6.284207E-2,1.145507E-2,-9.720007E-2,-3.1910732E-2,-1.3993512E-1],"split_indices":[20,15,36,0,0,0,0],"split_type":[0,0,0,0,0,0,0],"sum_hessian":[1.08860825E2,1.0397984E2,4.880981E0,9.8947174E1,5.0326686E0,2.2481837E0,2.6327972E0],"tree_param":{"num_deleted":"0","num_feature":"39","num_nodes":"7","size_leaf_vector":"1"}},{"base_weights":[-6.7733694E-3,-9.773403E-2,6.023969E-1,-2.8217113E-2,3.669368E-2,8.865897E-2,-1.8337853E-2],"categories":[],"categories_nodes":[],"categories_segments":[],"categories_sizes":[],"default_left":[0,0,0,0,0,0,0],"id":22,"left_children":[1,3,5,-1,-1,-1,-1],"loss_changes":[6.116901E0,8.3298E0,3.3656936E0,0E0,0E0,0E0,0E0],"parents":[2147483647,0,0,1,1,2,2],"right_children":[2,4,6,-1,-1,-1,-1],"split_conditions":[2.021811E0,1.5089189E0,-3.3946273E-1,-2.8217113E-2,3.669368E-2,8.865897E-2,-1.8337853E-2],"split_indices":[29,30,37,0,0,0,0],"split_type":[0,0,0,0,0,0,0],"sum_hessian":[1.0832988E2,9.4986206E1,1.33436775E1,6.827804E1,2.6708164E1,9.705259E0,3.6384182E0],"tree_param":{"num_deleted":"0","num_feature":"39","num_nodes":"7","size_leaf_vector":"1"}},{"base_weights":[-5.0214473E-3,-8.210885E-2,7.4635303E-1,-1.8341737E-2,5.6653094E-2,2.3632763E-2,1.1759293E-1],"categories":[],"categories_nodes":[],"categories_segments":[],"categories_sizes":[],"default_left":[0,0,0,0,0,0,0],"id":23,"left_children":[1,3,5,-1,-1,-1,-1],"loss_changes":[6.3458905E0,6.629651E0,1.955791E0,0E0,0E0,0E0,0E0],"parents":[2147483647,0,0,1,1,2,2],"right_children":[2,4,6,-1,-1,-1,-1],"split_conditions":[1.6198133E0,2.021811E0,1E0,-1.8341737E-2,5.6653094E-2,2.3632763E-2,1.1759293E-1],"split_indices":[37,29,7,0,0,0,0],"split_type":[0,0,0,0,0,0,0],"sum_hessian":[1.0750217E2,9.830706E1,9.195109E0,8.564736E1,1.2659699E1,4.9126186E0,4.2824903E0],"tree_param":{"num_deleted":"0","num_feature":"39","num_nodes":"7","size_leaf_vector":"1"}},{"base_weights":[-2.599815E-3,5.4023176E-2,-9.5519686E-1,-2.7328306E-3,8.615602E-2,-9.178851E-3,-1.4030918E-1],"categories":[],"categories_nodes":[],"categories_segments":[],"categories_sizes":[],"default_left":[0,0,0,0,0,0,0],"id":24,"left_children":[1,3,5,-1,-1,-1,-1],"loss_changes":[5.8900466E0,6.7976356E0,2.2404337E0,0E0,0E0,0E0,0E0],"parents":[2147483647,0,0,1,1,2,2],"right_children":[2,4,6,-1,-1,-1,-1],"split_conditions":[1E0,1.6198133E0,-5.023095E-1,-2.7328306E-3,8.615602E-2,-9.178851E-3,-1.4030918E-1],"split_indices":[16,37,37,0,0,0,0],"split_type":[0,0,0,0,0,0,0],"sum_hessian":[1.07241806E2,1.02115295E2,5.126511E0,9.364739E1,8.467903E0,2.1625981E0,2.963913E0],"tree_param":{"num_deleted":"0","num_feature":"39","num_nodes":"7","size_leaf_vector":"1"}},{"base_weights":[-2.816094E-3,3.3691227E-2,-1.4261672E-1,-1.30517455E-2,5.4030973E-2],"categories":[],"categories_nodes":[],"categories_segments":[],"categories_sizes":[],"default_left":[0,0,0,0,0],"id":25,"left_children":[1,3,-1,-1,-1],"loss_changes":[5.6628838E0,8.916215E0,0E0,0E0,0E0],"parents":[2147483647,0,0,1,1],"right_children":[2,4,-1,-1,-1],"split_conditions":[1E0,1.5089189E0,-1.4261672E-1,-1.30517455E-2,5.4030973E-2],"split_indices":[17,30,0,0,0],"split_type":[0,0,0,0,0],"sum_hessian":[1.07055016E2,1.0532976E2,1.725258E0,8.010723E1,2.522253E1],"tree_param":{"num_deleted":"0","num_feature":"39","num_nodes":"5","size_leaf_vector":"1"}},{"base_weights":[-3.158776E-3,6.682551E-2,-7.553346E-1,5.8238544E-2,-6.2657446E-3,-1.3052087E-1,3.945012E-2],"categories":[],"categories_nodes":[],"categories_segments":[],"categories_sizes":[],"default_left":[0,0,0,0,0,0,0],"id":26,"left_children":[1,3,5,-1,-1,-1,-1],"loss_changes":[5.715511E0,6.670425E0,6.3582616E0,0E0,0E0,0E0,0E0],"parents":[2147483647,0,0,1,1,2,2],"right_children":[2,4,6,-1,-1,-1,-1],"split_conditions":[1E0,-6.899199E-1,1.5089189E0,5.8238544E-2,-6.2657446E-3,-1.3052087E-1,3.945012E-2],"split_indices":[23,35,30,0,0,0,0],"split_type":[0,0,0,0,0,0,0],"sum_hessian":[1.06617455E2,9.837551E1,8.241942E0,1.9045322E1,7.933019E1,5.4841757E0,2.7577665E0],"tree_param":{"num_deleted":"0","num_feature":"39","num_nodes":"7","size_leaf_vector":"1"}},{"base_weights":[-3.0744069E-3,5.0181188E-2,-9.305481E-1,1.2444439E-2,-7.1531884E-2,-2.6495865E-2,-1.268776E-1],"categories":[],"categories_nodes":[],"categories_segments":[],"categories_sizes":[],"default_left":[0,0,0,0,0,0,0],"id":27,"left_children":[1,3,5,-1,-1,-1,-1],"loss_changes":[5.346297E0,5.911255E0,9.869666E-1,0E0,0E0,0E0,0E0],"parents":[2147483647,0,0,1,1,2,2],"right_children":[2,4,6,-1,-1,-1,-1],"split_conditions":[1E0,1E0,-6.284207E-2,1.2444439E-2,-7.1531884E-2,-2.6495865E-2,-1.268776E-1],"split_indices":[20,26,36,0,0,0,0],"split_type":[0,0,0,0,0,0,0],"sum_hessian":[1.0629423E2,1.0141676E2,4.877462E0,9.32115E1,8.205262E0,2.2443132E0,2.6331487E0],"tree_param":{"num_deleted":"0","num_feature":"39","num_nodes":"7","size_leaf_vector":"1"}},{"base_weights":[-4.760443E-3,4.8978962E-2,-8.93438E-1,-3.6324076E-3,7.513444E-2,-2.299401E-2,-1.4147496E-1],"categories":[],"categories_nodes":[],"categories_segments":[],"categories_sizes":[],"default_left":[0,0,0,0,0,0,0],"id":28,"left_children":[1,3,5,-1,-1,-1,-1],"loss_changes":[5.144561E0,6.118437E0,1.7992978E0,0E0,0E0,0E0,0E0],"parents":[2147483647,0,0,1,1,2,2],"right_children":[2,4,6,-1,-1,-1,-1],"split_conditions":[1E0,2.021811E0,-4.496051E-1,-3.6324076E-3,7.513444E-2,-2.299401E-2,-1.4147496E-1],"split_indices":[16,29,37,0,0,0,0],"split_type":[0,0,0,0,0,0,0],"sum_hessian":[1.05807396E2,1.00664955E2,5.142446E0,9.060871E1,1.0056242E1,2.8967264E0,2.2457197E0],"tree_param":{"num_deleted":"0","num_feature":"39","num_nodes":"7","size_leaf_vector":"1"}},{"base_weights":[-4.9706283E-3,-1.3617508E-1,3.4280282E-1,-2.5118465E-2,5.4102298E-2,7.277984E-2,-1.0286092E-1],"categories":[],"categories_nodes":[],"categories_segments":[],"categories_sizes":[],"default_left":[0,0,0,0,0,0,0],"id":29,"left_children":[1,3,5,-1,-1,-1,-1],"loss_changes":[4.898478E0,6.2045965E0,1.6277243E1,0E0,0E0,0E0,0E0],"parents":[2147483647,0,0,1,1,2,2],"right_children":[2,4,6,-1,-1,-1,-1],"split_conditions":[2.9540458E-1,2.021811E0,1E0,-2.5118465E-2,5.4102298E-2,7.277984E-2,-1.0286092E-1],"split_indices":[37,29,6,0,0,0,0],"split_type":[0,0,0,0,0,0,0],"sum_hessian":[1.05330444E2,7.691948E1,2.8410967E1,6.629037E1,1.0629112E1,2.2549866E1,5.8611016E0],"tree_param":{"num_deleted":"0","num_feature":"39","num_nodes":"7","size_leaf_vector":"1"}},{"base_weights":[-4.07049E-3,4.611824E-2,-8.8511467E-1,1.1762432E-2,-6.825884E-2,2.7935428E-4,-1.0977397E-1],"categories":[],"categories_nodes":[],"categories_segments":[],"categories_sizes":[],"default_left":[0,0,0,0,0,0,0],"id":30,"left_children":[1,3,5,-1,-1,-1,-1],"loss_changes":[4.7283344E0,5.3558674E0,1.0910382E0,0E0,0E0,0E0,0E0],"parents":[2147483647,0,0,1,1,2,2],"right_children":[2,4,6,-1,-1,-1,-1],"split_conditions":[1E0,1E0,-4.7765228E-1,1.1762432E-2,-6.825884E-2,2.7935428E-4,-1.0977397E-1],"split_indices":[15,23,35,0,0,0,0],"split_type":[0,0,0,0,0,0,0],"sum_hessian":[1.05008026E2,1.002452E2,4.762819E0,9.2051056E1,8.194146E0,1.110849E0,3.65197E0],"tree_param":{"num_deleted":"0","num_feature":"39","num_nodes":"7","size_leaf_vector":"1"}},{"base_weights":[-5.292089E-3,2.9860443E-2,-1.276965E-1,-1.2092607E-2,5.024735E-2],"categories":[],"categories_nodes":[],"categories_segments":[],"categories_sizes":[],"default_left":[0,0,0,0,0],"id":31,"left_children":[1,3,-1,-1,-1],"loss_changes":[4.755403E0,7.4482718E0,0E0,0E0,0E0],"parents":[2147483647,0,0,1,1],"right_children":[2,4,-1,-1,-1],"split_conditions":[1E0,1.5089189E0,-1.276965E-1,-1.2092607E-2,5.024735E-2],"split_indices":[17,30,0,0,0],"split_type":[0,0,0,0,0],"sum_hessian":[1.0452587E2,1.0266447E2,1.8614093E0,7.8396355E1,2.426811E1],"tree_param":{"num_deleted":"0","num_feature":"39","num_nodes":"5","size_leaf_vector":"1"}},{"base_weights":[-5.3523863E-3,4.6369042E-2,-8.4671915E-1,-2.5611466E-3,7.856136E-2,-8.915657E-3,-1.2341058E-1],"categories":[],"categories_nodes":[],"categories_segments":[],"categories_sizes":[],"default_left":[0,0,0,0,0,0,0],"id":32,"left_children":[1,3,5,-1,-1,-1,-1],"loss_changes":[4.6128707E0,5.339192E0,1.6914597E0,0E0,0E0,0E0,0E0],"parents":[2147483647,0,0,1,1,2,2],"right_children":[2,4,6,-1,-1,-1,-1],"split_conditions":[1E0,1.6198133E0,-5.023095E-1,-2.5611466E-3,7.856136E-2,-8.915657E-3,-1.2341058E-1],"split_indices":[16,37,37,0,0,0,0],"split_type":[0,0,0,0,0,0,0],"sum_hessian":[1.041001E2,9.896151E1,5.138583E0,9.1060295E1,7.90122E0,2.154822E0,2.983761E0],"tree_param":{"num_deleted":"0","num_feature":"39","num_nodes":"7","size_leaf_vector":"1"}},{"base_weights":[-5.264978E-3,4.4745907E-2,-8.628407E-1,-1.0372392E-2,3.8009856E-2,-2.37545E-2,-1.18425965E-1],"categories":[],"categories_nodes":[],"categories_segments":[],"categories_sizes":[],"default_left":[0,0,0,0,0,0,0],"id":33,"left_children":[1,3,5,-1,-1,-1,-1],"loss_changes":[4.536638E0,5.0208783E0,8.900919E-1,0E0,0E0,0E0,0E0],"parents":[2147483647,0,0,1,1,2,2],"right_children":[2,4,6,-1,-1,-1,-1],"split_conditions":[1E0,3.5475844E-1,-6.284207E-2,-1.0372392E-2,3.8009856E-2,-2.37545E-2,-1.18425965E-1],"split_indices":[20,35,36,0,0,0,0],"split_type":[0,0,0,0,0,0,0],"sum_hessian":[1.038782E2,9.9049774E1,4.8284216E0,6.913328E1,2.9916498E1,2.2297215E0,2.5987003E0],"tree_param":{"num_deleted":"0","num_feature":"39","num_nodes":"7","size_leaf_vector":"1"}},{"base_weights":[-5.7659023E-3,4.181894E-1,-1.0702894E-1,7.5695954E-2,-1.0135318E-2,-3.7915982E-2,1.8062424E-2],"categories":[],"categories_nodes":[],"categories_segments":[],"categories_sizes":[],"default_left":[0,0,0,0,0,0,0],"id":34,"left_children":[1,3,5,-1,-1,-1,-1],"loss_changes":[4.535674E0,3.6623642E0,6.7406545E0,0E0,0E0,0E0,0E0],"parents":[2147483647,0,0,1,1,2,2],"right_children":[2,4,6,-1,-1,-1,-1],"split_conditions":[-6.899199E-1,-6.7953026E-1,1.9165336E-1,7.5695954E-2,-1.0135318E-2,-3.7915982E-2,1.8062424E-2],"split_indices":[35,36,35,0,0,0,0],"split_type":[0,0,0,0,0,0,0],"sum_hessian":[1.0360775E2,1.9372341E1,8.4235405E1,1.1449603E1,7.9227386E0,4.312212E1,4.111329E1],"tree_param":{"num_deleted":"0","num_feature":"39","num_nodes":"7","size_leaf_vector":"1"}},{"base_weights":[-4.5444546E-3,5.617773E-2,-6.447268E-1,1.3143879E-2,-6.816902E-2,-9.3611196E-2,6.6275224E-2],"categories":[],"categories_nodes":[],"categories_segments":[],"categories_sizes":[],"default_left":[0,0,0,0,0,0,0],"id":35,"left_children":[1,3,5,-1,-1,-1,-1],"loss_changes":[4.0960684E0,5.437958E0,4.0980105E0,0E0,0E0,0E0,0E0],"parents":[2147483647,0,0,1,1,2,2],"right_children":[2,4,6,-1,-1,-1,-1],"split_conditions":[1E0,3.4071536E0,4.0240848E-1,1.3143879E-2,-6.816902E-2,-9.3611196E-2,6.6275224E-2],"split_indices":[26,31,35,0,0,0,0],"split_type":[0,0,0,0,0,0,0],"sum_hessian":[1.0343805E2,9.531001E1,8.128039E0,8.723417E1,8.075844E0,6.879014E0,1.249026E0],"tree_param":{"num_deleted":"0","num_feature":"39","num_nodes":"7","size_leaf_vector":"1"}},{"base_weights":[-4.8603476E-3,4.304282E-2,-8.231185E-1,-4.7919014E-4,1.0205984E-1,-2.321781E-2,-1.126274E-1],"categories":[],"categories_nodes":[],"categories_segments":[],"categories_sizes":[],"default_left":[0,0,0,0,0,0,0],"id":36,"left_children":[1,3,5,-1,-1,-1,-1],"loss_changes":[4.114817E0,4.6467743E0,7.785394E-1,0E0,0E0,0E0,0E0],"parents":[2147483647,0,0,1,1,2,2],"right_children":[2,4,6,-1,-1,-1,-1],"split_conditions":[1E0,1.7343088E0,-6.284207E-2,-4.7919014E-4,1.0205984E-1,-2.321781E-2,-1.126274E-1],"split_indices":[20,35,36,0,0,0,0],"split_type":[0,0,0,0,0,0,0],"sum_hessian":[1.03073555E2,9.826806E1,4.8054953E0,9.46325E1,3.6355538E0,2.2281117E0,2.5773838E0],"tree_param":{"num_deleted":"0","num_feature":"39","num_nodes":"7","size_leaf_vector":"1"}},{"base_weights":[-4.6323207E-3,4.4651233E-2,-7.985708E-1,-3.0301185E-3,7.045775E-2,-1.8733267E-2,-1.2880938E-1],"categories":[],"categories_nodes":[],"categories_segments":[],"categories_sizes":[],"default_left":[0,0,0,0,0,0,0],"id":37,"left_children":[1,3,5,-1,-1,-1,-1],"loss_changes":[4.0990624E0,4.9046493E0,1.5906637E0,0E0,0E0,0E0,0E0],"parents":[2147483647,0,0,1,1,2,2],"right_children":[2,4,6,-1,-1,-1,-1],"split_conditions":[1E0,2.021811E0,-4.496051E-1,-3.0301185E-3,7.045775E-2,-1.8733267E-2,-1.2880938E-1],"split_indices":[16,29,37,0,0,0,0],"split_type":[0,0,0,0,0,0,0],"sum_hessian":[1.0284876E2,9.772619E1,5.1225715E0,8.8615585E1,9.110605E0,2.8929725E0,2.2295988E0],"tree_param":{"num_deleted":"0","num_feature":"39","num_nodes":"7","size_leaf_vector":"1"}},{"base_weights":[-4.804876E-3,4.19867E-2,-8.40868E-1,7.806153E-3,-1.1394091E-1,-1.0522797E-1,1.6542186E-5],"categories":[],"categories_nodes":[],"categories_segments":[],"categories_sizes":[],"default_left":[0,0,0,0,0,0,0],"id":38,"left_children":[1,3,5,-1,-1,-1,-1],"loss_changes":[4.0802445E0,4.3025975E0,9.830048E-1,0E0,0E0,0E0,0E0],"parents":[2147483647,0,0,1,1,2,2],"right_children":[2,4,6,-1,-1,-1,-1],"split_conditions":[1E0,1E0,-3.482627E-1,7.806153E-3,-1.1394091E-1,-1.0522797E-1,1.6542186E-5],"split_indices":[15,17,37,0,0,0,0],"split_type":[0,0,0,0,0,0,0],"sum_hessian":[1.0239636E2,9.786876E1,4.527597E0,9.587507E1,1.9936948E0,3.417389E0,1.1102084E0],"tree_param":{"num_deleted":"0","num_feature":"39","num_nodes":"7","size_leaf_vector":"1"}},{"base_weights":[-6.3775764E-3,-4.4925988E-2,9.091931E-2,-1.013711E-2,6.627675E-2],"categories":[],"categories_nodes":[],"categories_segments":[],"categories_sizes":[],"default_left":[0,0,0,0,0],"id":39,"left_children":[1,3,-1,-1,-1],"loss_changes":[3.6806264E0,4.058348E0,0E0,0E0,0E0],"parents":[2147483647,0,0,1,1],"right_children":[2,4,-1,-1,-1],"split_conditions":[1E0,3.8308845E0,9.091931E-2,-1.013711E-2,6.627675E-2],"split_indices":[24,32,0,0,0],"split_type":[0,0,0,0,0],"sum_hessian":[1.0212803E2,9.891435E1,3.213675E0,9.240126E1,6.5130982E0],"tree_param":{"num_deleted":"0","num_feature":"39","num_nodes":"5","size_leaf_vector":"1"}},{"base_weights":[-4.153664E-3,3.8605994E-1,-9.60398E-2,7.1471E-2,-1.0368695E-2,-2.461992E-2,3.2400753E-2],"categories":[],"categories_nodes":[],"categories_segments":[],"categories_sizes":[],"default_left":[0,0,0,0,0,0,0],"id":40,"left_children":[1,3,5,-1,-1,-1,-1],"loss_changes":[3.7300985E0,3.265885E0,5.3885827E0,0E0,0E0,0E0,0E0],"parents":[2147483647,0,0,1,1,2,2],"right_children":[2,4,6,-1,-1,-1,-1],"split_conditions":[-6.899199E-1,-6.7953026E-1,1.5089189E0,7.1471E-2,-1.0368695E-2,-2.461992E-2,3.2400753E-2],"split_indices":[35,36,30,0,0,0,0],"split_type":[0,0,0,0,0,0,0],"sum_hessian":[1.01998146E2,1.8830215E1,8.316793E1,1.0993536E1,7.8366795E0,6.157121E1,2.1596724E1],"tree_param":{"num_deleted":"0","num_feature":"39","num_nodes":"7","size_leaf_vector":"1"}},{"base_weights":[-2.8728044E-3,-4.185507E-2,8.8615316E-1,-2.0485483E-2,2.1202615E-2,1.0024329E-1,2.7239969E-2],"categories":[],"categories_nodes":[],"categories_segments":[],"categories_sizes":[],"default_left":[0,0,0,0,0,0,0],"id":41,"left_children":[1,3,5,-1,-1,-1,-1],"loss_changes":[3.5902781E0,4.1475415E0,3.75185E-2,0E0,0E0,0E0,0E0],"parents":[2147483647,0,0,1,1,2,2],"right_children":[2,4,6,-1,-1,-1,-1],"split_conditions":[1E0,-8.960127E-2,-4.9055505E-1,-2.0485483E-2,2.1202615E-2,1.0024329E-1,2.7239969E-2],"split_indices":[4,37,37,0,0,0,0],"split_type":[0,0,0,0,0,0,0],"sum_hessian":[1.01526634E2,9.817476E1,3.3518746E0,5.9906197E1,3.8268562E1,2.2855744E0,1.0663002E0],"tree_param":{"num_deleted":"0","num_feature":"39","num_nodes":"7","size_leaf_vector":"1"}},{"base_weights":[-1.2219436E-3,-6.730121E-2,5.086408E-1,-2.569052E-2,2.0842066E-2,7.9853855E-2,-2.0780964E-2],"categories":[],"categories_nodes":[],"categories_segments":[],"categories_sizes":[],"default_left":[0,0,0,0,0,0,0],"id":42,"left_children":[1,3,5,-1,-1,-1,-1],"loss_changes":[3.4887621E0,4.8450136E0,2.6335766E0,0E0,0E0,0E0,0E0],"parents":[2147483647,0,0,1,1,2,2],"right_children":[2,4,6,-1,-1,-1,-1],"split_conditions":[2.021811E0,-8.960127E-2,-3.3946273E-1,-2.569052E-2,2.0842066E-2,7.9853855E-2,-2.0780964E-2],"split_indices":[29,37,37,0,0,0,0],"split_type":[0,0,0,0,0,0,0],"sum_hessian":[1.0153461E2,9.06537E1,1.0880904E1,5.375593E1,3.689777E1,7.6648827E0,3.2160215E0],"tree_param":{"num_deleted":"0","num_feature":"39","num_nodes":"7","size_leaf_vector":"1"}},{"base_weights":[-3.27424E-4,4.5060407E-2,-7.253738E-1,1.27795385E-2,-4.5667242E-2,-1.4911139E-2,-1.2012017E-1],"categories":[],"categories_nodes":[],"categories_segments":[],"categories_sizes":[],"default_left":[0,0,0,0,0,0,0],"id":43,"left_children":[1,3,5,-1,-1,-1,-1],"loss_changes":[3.396188E0,4.0902505E0,1.4879756E0,0E0,0E0,0E0,0E0],"parents":[2147483647,0,0,1,1,2,2],"right_children":[2,4,6,-1,-1,-1,-1],"split_conditions":[1E0,1E0,-4.496051E-1,1.27795385E-2,-4.5667242E-2,-1.4911139E-2,-1.2012017E-1],"split_indices":[16,6,37,0,0,0,0],"split_type":[0,0,0,0,0,0,0],"sum_hessian":[1.01208374E2,9.6128586E1,5.079788E0,8.316079E1,1.2967794E1,2.8914287E0,2.1883595E0],"tree_param":{"num_deleted":"0","num_feature":"39","num_nodes":"7","size_leaf_vector":"1"}},{"base_weights":[-1.9115717E-3,5.5057313E-2,-5.95258E-1,1.2533955E-2,-6.1703812E-2,-8.7073974E-2,6.2325474E-2],"categories":[],"categories_nodes":[],"categories_segments":[],"categories_sizes":[],"default_left":[0,0,0,0,0,0,0],"id":44,"left_children":[1,3,5,-1,-1,-1,-1],"loss_changes":[3.479259E0,4.5148926E0,3.5693572E0,0E0,0E0,0E0,0E0],"parents":[2147483647,0,0,1,1,2,2],"right_children":[2,4,6,-1,-1,-1,-1],"split_conditions":[1E0,3.4071536E0,4.0240848E-1,1.2533955E-2,-6.1703812E-2,-8.7073974E-2,6.2325474E-2],"split_indices":[26,31,35,0,0,0,0],"split_type":[0,0,0,0,0,0,0],"sum_hessian":[1.00960144E2,9.294357E1,8.016569E0,8.488093E1,8.062643E0,6.7711525E0,1.2454169E0],"tree_param":{"num_deleted":"0","num_feature":"39","num_nodes":"7","size_leaf_vector":"1"}},{"base_weights":[-2.4392367E-3,4.1986443E-2,-7.5489074E-1,8.886061E-3,-7.8569636E-2,-1.889967E-2,-1.0569563E-1],"categories":[],"categories_nodes":[],"categories_segments":[],"categories_sizes":[],"default_left":[0,0,0,0,0,0,0],"id":45,"left_children":[1,3,5,-1,-1,-1,-1],"loss_changes":[3.4274848E0,3.8280241E0,7.7731633E-1,0E0,0E0,0E0,0E0],"parents":[2147483647,0,0,1,1,2,2],"right_children":[2,4,6,-1,-1,-1,-1],"split_conditions":[1E0,1E0,-6.284207E-2,8.886061E-3,-7.8569636E-2,-1.889967E-2,-1.0569563E-1],"split_indices":[20,15,36,0,0,0,0],"split_type":[0,0,0,0,0,0,0],"sum_hessian":[1.0058466E2,9.586866E1,4.7160053E0,9.157512E1,4.2935348E0,2.2070208E0,2.5089843E0],"tree_param":{"num_deleted":"0","num_feature":"39","num_nodes":"7","size_leaf_vector":"1"}},{"base_weights":[-4.185571E-3,2.8099181E-2,-1.0353671E0,-9.048352E-3,4.1821253E-2,1.9250672E-2,-1.7568703E-1],"categories":[],"categories_nodes":[],"categories_segments":[],"categories_sizes":[],"default_left":[0,0,0,0,0,0,0],"id":46,"left_children":[1,3,5,-1,-1,-1,-1],"loss_changes":[3.3957114E0,4.619003E0,3.0813553E0,0E0,0E0,0E0,0E0],"parents":[2147483647,0,0,1,1,2,2],"right_children":[2,4,6,-1,-1,-1,-1],"split_conditions":[1E0,1.5089189E0,6.32404E-2,-9.048352E-3,4.1821253E-2,1.9250672E-2,-1.7568703E-1],"split_indices":[17,30,35,0,0,0,0],"split_type":[0,0,0,0,0,0,0],"sum_hessian":[1.00125656E2,9.802925E1,2.0963988E0,7.576656E1,2.2262693E1,1.0472858E0,1.049113E0],"tree_param":{"num_deleted":"0","num_feature":"39","num_nodes":"7","size_leaf_vector":"1"}},{"base_weights":[-4.79474E-3,5.190634E-2,-5.91793E-1,4.6953004E-2,-4.760779E-3,1.9498928E-2,-1.2391936E-1],"categories":[],"categories_nodes":[],"categories_segments":[],"categories_sizes":[],"default_left":[0,0,0,0,0,0,0],"id":47,"left_children":[1,3,5,-1,-1,-1,-1],"loss_changes":[3.3830307E0,3.8777184E0,4.8018064E0,0E0,0E0,0E0,0E0],"parents":[2147483647,0,0,1,1,2,2],"right_children":[2,4,6,-1,-1,-1,-1],"split_conditions":[1E0,-6.899199E-1,1.0642087E0,4.6953004E-2,-4.760779E-3,1.9498928E-2,-1.2391936E-1],"split_indices":[23,35,36,0,0,0,0],"split_type":[0,0,0,0,0,0,0],"sum_hessian":[9.972015E1,9.1767456E1,7.952702E0,1.6943535E1,7.482392E1,3.9053564E0,4.0473456E0],"tree_param":{"num_deleted":"0","num_feature":"39","num_nodes":"7","size_leaf_vector":"1"}},{"base_weights":[-4.8763766E-3,-3.6564764E-2,1.0283148E-1,-1.0198537E-2,4.804127E-2],"categories":[],"categories_nodes":[],"categories_segments":[],"categories_sizes":[],"default_left":[0,0,0,0,0],"id":48,"left_children":[1,3,-1,-1,-1],"loss_changes":[3.326759E0,3.3782861E0,0E0,0E0,0E0],"parents":[2147483647,0,0,1,1],"right_children":[2,4,-1,-1,-1],"split_conditions":[1E0,2.021811E0,1.0283148E-1,-1.0198537E-2,4.804127E-2],"split_indices":[27,29,0,0,0],"split_type":[0,0,0,0,0],"sum_hessian":[9.946251E1,9.743864E1,2.0238721E0,8.720594E1,1.0232697E1],"tree_param":{"num_deleted":"0","num_feature":"39","num_nodes":"5","size_leaf_vector":"1"}},{"base_weights":[-2.8713418E-3,4.2132292E-2,-7.136905E-1,-1.8744235E-3,6.9455646E-2,-1.6944535E-2,-1.1550386E-1],"categories":[],"categories_nodes":[],"categories_segments":[],"categories_sizes":[],"default_left":[0,0,0,0,0,0,0],"id":49,"left_children":[1,3,5,-1,-1,-1,-1],"loss_changes":[3.2389379E0,3.7973545E0,1.2523324E0,0E0,0E0,0E0,0E0],"parents":[2147483647,0,0,1,1,2,2],"right_children":[2,4,6,-1,-1,-1,-1],"split_conditions":[1E0,1.6198133E0,-4.496051E-1,-1.8744235E-3,6.9455646E-2,-1.6944535E-2,-1.1550386E-1],"split_indices":[16,37,37,0,0,0,0],"split_type":[0,0,0,0,0,0,0],"sum_hessian":[9.931023E1,9.428175E1,5.0284724E0,8.712367E1,7.158083E0,2.8714685E0,2.1570036E0],"tree_param":{"num_deleted":"0","num_feature":"39","num_nodes":"7","size_leaf_vector":"1"}},{"base_weights":[-3.180063E-3,-3.5001278E-2,9.483108E-2,-7.128452E-3,8.6423144E-2],"categories":[],"categories_nodes":[],"categories_segments":[],"categories_sizes":[],"default_left":[0,0,0,0,0],"id":50,"left_children":[1,3,-1,-1,-1],"loss_changes":[3.0627565E0,3.2520769E0,0E0,0E0,0E0],"parents":[2147483647,0,0,1,1],"right_children":[2,4,-1,-1,-1],"split_conditions":[1E0,1E0,9.483108E-2,-7.128452E-3,8.6423144E-2],"split_indices":[22,24,0,0,0],"split_type":[0,0,0,0,0],"sum_hessian":[9.9059616E1,9.6785965E1,2.2736502E0,9.391722E1,2.8687491E0],"tree_param":{"num_deleted":"0","num_feature":"39","num_nodes":"5","size_leaf_vector":"1"}},{"base_weights":[-9.866194E-4,-3.6543604E-2,8.3378875E-1,-8.720476E-3,6.1173934E-2,9.520179E-2,2.4274187E-2],"categories":[],"categories_nodes":[],"categories_segments":[],"categories_sizes":[],"default_left":[0,0,0,0,0,0,0],"id":51,"left_children":[1,3,5,-1,-1,-1,-1],"loss_changes":[2.99749E0,3.2336478E0,5.7211876E-2,0E0,0E0,0E0,0E0],"parents":[2147483647,0,0,1,1,2,2],"right_children":[2,4,6,-1,-1,-1,-1],"split_conditions":[1E0,3.8308845E0,-4.9055505E-1,-8.720476E-3,6.1173934E-2,9.520179E-2,2.4274187E-2],"split_indices":[4,32,37,0,0,0,0],"split_type":[0,0,0,0,0,0,0],"sum_hessian":[9.895994E1,9.583414E1,3.1258001E0,8.96906E1,6.143539E0,2.095832E0,1.029968E0],"tree_param":{"num_deleted":"0","num_feature":"39","num_nodes":"7","size_leaf_vector":"1"}},{"base_weights":[9.4381976E-4,-2.9056728E-2,9.901519E-2,-8.9802295E-3,4.6623774E-2],"categories":[],"categories_nodes":[],"categories_segments":[],"categories_sizes":[],"default_left":[0,0,0,0,0],"id":52,"left_children":[1,3,-1,-1,-1],"loss_changes":[2.993191E0,2.9880252E0,0E0,0E0,0E0],"parents":[2147483647,0,0,1,1],"right_children":[2,4,-1,-1,-1],"split_conditions":[1E0,2.021811E0,9.901519E-2,-8.9802295E-3,4.6623774E-2],"split_indices":[27,29,0,0,0],"split_type":[0,0,0,0,0],"sum_hessian":[9.8890205E1,9.692142E1,1.9687912E0,8.706232E1,9.8591E0],"tree_param":{"num_deleted":"0","num_feature":"39","num_nodes":"5","size_leaf_vector":"1"}},{"base_weights":[2.3337516E-3,3.290019E-2,-9.315894E-1,-7.9051545E-3,4.019895E-2,1.9320963E-2,-1.566528E-1],"categories":[],"categories_nodes":[],"categories_segments":[],"categories_sizes":[],"default_left":[0,0,0,0,0,0,0],"id":53,"left_children":[1,3,5,-1,-1,-1,-1],"loss_changes":[2.8774629E0,4.061743E0,2.5841622E0,0E0,0E0,0E0,0E0],"parents":[2147483647,0,0,1,1,2,2],"right_children":[2,4,6,-1,-1,-1,-1],"split_conditions":[1E0,1.5089189E0,6.32404E-2,-7.9051545E-3,4.019895E-2,1.9320963E-2,-1.566528E-1],"split_indices":[17,30,35,0,0,0,0],"split_type":[0,0,0,0,0,0,0],"sum_hessian":[9.8724754E1,9.653018E1,2.1945713E0,7.466784E1,2.1862343E1,1.0428525E0,1.1517187E0],"tree_param":{"num_deleted":"0","num_feature":"39","num_nodes":"7","size_leaf_vector":"1"}},{"base_weights":[1.2338167E-3,4.327479E-2,-6.6301113E-1,-1.3250127E-3,6.612876E-2,-1.4546002E-2,-1.0947537E-1],"categories":[],"categories_nodes":[],"categories_segments":[],"categories_sizes":[],"default_left":[0,0,0,0,0,0,0],"id":54,"left_children":[1,3,5,-1,-1,-1,-1],"loss_changes":[2.8018553E0,3.304123E0,1.1752713E0,0E0,0E0,0E0,0E0],"parents":[2147483647,0,0,1,1,2,2],"right_children":[2,4,6,-1,-1,-1,-1],"split_conditions":[1E0,1.6198133E0,-4.496051E-1,-1.3250127E-3,6.612876E-2,-1.4546002E-2,-1.0947537E-1],"split_indices":[16,37,37,0,0,0,0],"split_type":[0,0,0,0,0,0,0],"sum_hessian":[9.830576E1,9.333341E1,4.972348E0,8.640882E1,6.924596E0,2.8694773E0,2.102871E0],"tree_param":{"num_deleted":"0","num_feature":"39","num_nodes":"7","size_leaf_vector":"1"}},{"base_weights":[5.6327856E-4,3.8982812E-2,-7.199546E-1,9.618264E-3,-5.2810706E-2,-9.43888E-2,6.4290958E-3],"categories":[],"categories_nodes":[],"categories_segments":[],"categories_sizes":[],"default_left":[0,0,0,0,0,0,0],"id":55,"left_children":[1,3,5,-1,-1,-1,-1],"loss_changes":[2.7697594E0,3.1316192E0,9.502237E-1,0E0,0E0,0E0,0E0],"parents":[2147483647,0,0,1,1,2,2],"right_children":[2,4,6,-1,-1,-1,-1],"split_conditions":[1E0,1E0,-3.482627E-1,9.618264E-3,-5.2810706E-2,-9.43888E-2,6.4290958E-3],"split_indices":[15,23,37,0,0,0,0],"split_type":[0,0,0,0,0,0,0],"sum_hessian":[9.804261E1,9.397743E1,4.065179E0,8.612116E1,7.8562646E0,3.0038877E0,1.0612913E0],"tree_param":{"num_deleted":"0","num_feature":"39","num_nodes":"7","size_leaf_vector":"1"}},{"base_weights":[-8.597885E-4,4.0199116E-2,-6.879894E-1,3.473326E-5,9.316364E-2,-1.4957279E-2,-9.88875E-2],"categories":[],"categories_nodes":[],"categories_segments":[],"categories_sizes":[],"default_left":[0,0,0,0,0,0,0],"id":56,"left_children":[1,3,5,-1,-1,-1,-1],"loss_changes":[2.8111062E0,3.340519E0,7.622335E-1,0E0,0E0,0E0,0E0],"parents":[2147483647,0,0,1,1,2,2],"right_children":[2,4,6,-1,-1,-1,-1],"split_conditions":[1E0,1.7343088E0,-6.284207E-2,3.473326E-5,9.316364E-2,-1.4957279E-2,-9.88875E-2],"split_indices":[20,35,36,0,0,0,0],"split_type":[0,0,0,0,0,0,0],"sum_hessian":[9.765915E1,9.304105E1,4.6180997E0,9.001721E1,3.0238378E0,2.1922712E0,2.4258285E0],"tree_param":{"num_deleted":"0","num_feature":"39","num_nodes":"7","size_leaf_vector":"1"}},{"base_weights":[-9.3017856E-4,-3.0616418E-2,9.141438E-2,-6.602806E-3,8.018245E-2],"categories":[],"categories_nodes":[],"categories_segments":[],"categories_sizes":[],"default_left":[0,0,0,0,0],"id":57,"left_children":[1,3,-1,-1,-1],"loss_changes":[2.7017295E0,2.8916974E0,0E0,0E0,0E0],"parents":[2147483647,0,0,1,1],"right_children":[2,4,-1,-1,-1],"split_conditions":[1E0,1E0,9.141438E-2,-6.602806E-3,8.018245E-2],"split_indices":[22,4,0,0,0],"split_type":[0,0,0,0,0],"sum_hessian":[9.7425606E1,9.5300476E1,2.1251345E0,9.229497E1,3.0055025E0],"tree_param":{"num_deleted":"0","num_feature":"39","num_nodes":"5","size_leaf_vector":"1"}},{"base_weights":[9.391337E-4,-2.764762E-2,9.5047064E-2,-6.051165E-3,8.307717E-2],"categories":[],"categories_nodes":[],"categories_segments":[],"categories_sizes":[],"default_left":[0,0,0,0,0],"id":58,"left_children":[1,3,-1,-1,-1],"loss_changes":[2.6967397E0,2.7720122E0,0E0,0E0,0E0],"parents":[2147483647,0,0,1,1],"right_children":[2,4,-1,-1,-1],"split_conditions":[1E0,1E0,9.5047064E-2,-6.051165E-3,8.307717E-2],"split_indices":[27,24,0,0,0],"split_type":[0,0,0,0,0],"sum_hessian":[9.7381195E1,9.5477615E1,1.9035823E0,9.285233E1,2.6252835E0],"tree_param":{"num_deleted":"0","num_feature":"39","num_nodes":"5","size_leaf_vector":"1"}},{"base_weights":[2.7029598E-3,6.8092704E-2,-3.9116204E-1,-1.12867085E-2,6.3087575E-2,-6.591139E-2,1.0150911E-1],"categories":[],"categories_nodes":[],"categories_segments":[],"categories_sizes":[],"default_left":[0,0,0,0,0,0,0],"id":59,"left_children":[1,3,5,-1,-1,-1,-1],"loss_changes":[2.5584807E0,8.744066E0,5.9991255E0,0E0,0E0,0E0,0E0],"parents":[2147483647,0,0,1,1,2,2],"right_children":[2,4,6,-1,-1,-1,-1],"split_conditions":[1E0,2.9540458E-1,9.15353E-1,-1.12867085E-2,6.3087575E-2,-6.591139E-2,1.0150911E-1],"split_indices":[6,37,36,0,0,0,0],"split_type":[0,0,0,0,0,0,0],"sum_hessian":[9.7306015E1,8.416071E1,1.3145304E1,6.4288536E1,1.9872175E1,1.14877E1,1.6576041E0],"tree_param":{"num_deleted":"0","num_feature":"39","num_nodes":"7","size_leaf_vector":"1"}},{"base_weights":[3.5630006E-3,5.4764744E-2,-5.192495E-1,1.177699E-2,-5.4050602E-2,-7.8875534E-2,6.248873E-2],"categories":[],"categories_nodes":[],"categories_segments":[],"categories_sizes":[],"default_left":[0,0,0,0,0,0,0],"id":60,"left_children":[1,3,5,-1,-1,-1,-1],"loss_changes":[2.6563132E0,3.451004E0,3.2224174E0,0E0,0E0,0E0,0E0],"parents":[2147483647,0,0,1,1,2,2],"right_children":[2,4,6,-1,-1,-1,-1],"split_conditions":[1E0,3.4071536E0,4.0240848E-1,1.177699E-2,-5.4050602E-2,-7.8875534E-2,6.248873E-2],"split_indices":[26,31,35,0,0,0,0],"split_type":[0,0,0,0,0,0,0],"sum_hessian":[9.7168976E1,8.9316956E1,7.8520226E0,8.14936E1,7.823358E0,6.6064577E0,1.245565E0],"tree_param":{"num_deleted":"0","num_feature":"39","num_nodes":"7","size_leaf_vector":"1"}},{"base_weights":[2.6141433E-3,4.293421E-2,-6.295668E-1,-1.3534513E-3,6.08779E-2,-1.3266647E-2,-1.0537549E-1],"categories":[],"categories_nodes":[],"categories_segments":[],"categories_sizes":[],"default_left":[0,0,0,0,0,0,0],"id":61,"left_children":[1,3,5,-1,-1,-1,-1],"loss_changes":[2.5195725E0,2.9753532E0,1.1094241E0,0E0,0E0,0E0,0E0],"parents":[2147483647,0,0,1,1,2,2],"right_children":[2,4,6,-1,-1,-1,-1],"split_conditions":[1E0,2.021811E0,-4.496051E-1,-1.3534513E-3,6.08779E-2,-1.3266647E-2,-1.0537549E-1],"split_indices":[16,29,37,0,0,0,0],"split_type":[0,0,0,0,0,0,0],"sum_hessian":[9.6786736E1,9.186005E1,4.9266853E0,8.441218E1,7.4478683E0,2.873444E0,2.0532415E0],"tree_param":{"num_deleted":"0","num_feature":"39","num_nodes":"7","size_leaf_vector":"1"}},{"base_weights":[1.8377348E-3,3.1251624E-2,-8.577658E-1,-7.0166783E-3,3.694179E-2,1.847347E-2,-1.4239173E-1],"categories":[],"categories_nodes":[],"categories_segments":[],"categories_sizes":[],"default_left":[0,0,0,0,0,0,0],"id":62,"left_children":[1,3,5,-1,-1,-1,-1],"loss_changes":[2.4891222E0,3.2884574E0,2.1855037E0,0E0,0E0,0E0,0E0],"parents":[2147483647,0,0,1,1,2,2],"right_children":[2,4,6,-1,-1,-1,-1],"split_conditions":[1E0,1.5089189E0,6.32404E-2,-7.0166783E-3,3.694179E-2,1.847347E-2,-1.4239173E-1],"split_indices":[17,30,35,0,0,0,0],"split_type":[0,0,0,0,0,0,0],"sum_hessian":[9.6385216E1,9.412799E1,2.257225E0,7.3020996E1,2.1106995E1,1.0315145E0,1.2257104E0],"tree_param":{"num_deleted":"0","num_feature":"39","num_nodes":"7","size_leaf_vector":"1"}},{"base_weights":[8.390748E-4,-2.6125578E-2,9.093567E-2,-5.4929997E-3,8.816798E-2],"categories":[],"categories_nodes":[],"categories_segments":[],"categories_sizes":[],"default_left":[0,0,0,0,0],"id":63,"left_children":[1,3,-1,-1,-1],"loss_changes":[2.3998425E0,2.536957E0,0E0,0E0,0E0],"parents":[2147483647,0,0,1,1],"right_children":[2,4,-1,-1,-1],"split_conditions":[1E0,1E0,9.093567E-2,-5.4929997E-3,8.816798E-2],"split_indices":[27,22,0,0,0],"split_type":[0,0,0,0,0],"sum_hessian":[9.599152E1,9.416788E1,1.8236434E0,9.218245E1,1.9854325E0],"tree_param":{"num_deleted":"0","num_feature":"39","num_nodes":"5","size_leaf_vector":"1"}},{"base_weights":[2.6277262E-3,4.064681E-2,-6.337457E-1,4.836666E-4,8.8746585E-2,-5.536558E-3,-8.827495E-2],"categories":[],"categories_nodes":[],"categories_segments":[],"categories_sizes":[],"default_left":[0,0,0,0,0,0,0],"id":64,"left_children":[1,3,5,-1,-1,-1,-1],"loss_changes":[2.3716846E0,2.798779E0,7.470486E-1,0E0,0E0,0E0,0E0],"parents":[2147483647,0,0,1,1,2,2],"right_children":[2,4,6,-1,-1,-1,-1],"split_conditions":[1E0,1.7343088E0,-3.2865596E-1,4.836666E-4,8.8746585E-2,-5.536558E-3,-8.827495E-2],"split_indices":[20,35,36,0,0,0,0],"split_type":[0,0,0,0,0,0,0],"sum_hessian":[9.596174E1,9.143522E1,4.5265193E0,8.869041E1,2.7448137E0,1.7301397E0,2.7963796E0],"tree_param":{"num_deleted":"0","num_feature":"39","num_nodes":"7","size_leaf_vector":"1"}},{"base_weights":[2.376194E-3,-2.9184176E-2,7.649851E-2,6.033061E-2,-7.014251E-3],"categories":[],"categories_nodes":[],"categories_segments":[],"categories_sizes":[],"default_left":[0,0,0,0,0],"id":65,"left_children":[1,3,-1,-1,-1],"loss_changes":[2.3507364E0,2.473853E0,0E0,0E0,0E0],"parents":[2147483647,0,0,1,1],"right_children":[2,4,-1,-1,-1],"split_conditions":[1E0,-1.3387487E0,7.649851E-2,6.033061E-2,-7.014251E-3],"split_indices":[4,36,0,0,0],"split_type":[0,0,0,0,0],"sum_hessian":[9.574214E1,9.2860855E1,2.881291E0,4.812658E0,8.8048195E1],"tree_param":{"num_deleted":"0","num_feature":"39","num_nodes":"5","size_leaf_vector":"1"}},{"base_weights":[3.5656602E-3,3.895317E-2,-6.689728E-1,-2.01705E-3,5.322918E-2,6.960232E-3,-9.1253765E-2],"categories":[],"categories_nodes":[],"categories_segments":[],"categories_sizes":[],"default_left":[0,0,0,0,0,0,0],"id":66,"left_children":[1,3,5,-1,-1,-1,-1],"loss_changes":[2.3272161E0,2.71756E0,9.4287515E-1,0E0,0E0,0E0,0E0],"parents":[2147483647,0,0,1,1,2,2],"right_children":[2,4,6,-1,-1,-1,-1],"split_conditions":[1E0,2.021811E0,-4.7765228E-1,-2.01705E-3,5.322918E-2,6.960232E-3,-9.1253765E-2],"split_indices":[15,29,35,0,0,0,0],"split_type":[0,0,0,0,0,0,0],"sum_hessian":[9.5689476E1,9.180118E1,3.888298E0,8.283322E1,8.967952E0,1.1414006E0,2.7468975E0],"tree_param":{"num_deleted":"0","num_feature":"39","num_nodes":"7","size_leaf_vector":"1"}},{"base_weights":[2.8909198E-3,4.120869E-2,-5.954218E-1,-7.594448E-4,5.973045E-2,-1.2018527E-2,-1.0100955E-1],"categories":[],"categories_nodes":[],"categories_segments":[],"categories_sizes":[],"default_left":[0,0,0,0,0,0,0],"id":67,"left_children":[1,3,5,-1,-1,-1,-1],"loss_changes":[2.231883E0,2.4856462E0,1.033371E0,0E0,0E0,0E0,0E0],"parents":[2147483647,0,0,1,1,2,2],"right_children":[2,4,6,-1,-1,-1,-1],"split_conditions":[1E0,1.6198133E0,-4.496051E-1,-7.594448E-4,5.973045E-2,-1.2018527E-2,-1.0100955E-1],"split_indices":[16,37,37,0,0,0,0],"split_type":[0,0,0,0,0,0,0],"sum_hessian":[9.528132E1,9.042158E1,4.8597474E0,8.403314E1,6.3884306E0,2.8655343E0,1.9942132E0],"tree_param":{"num_deleted":"0","num_feature":"39","num_nodes":"7","size_leaf_vector":"1"}},{"base_weights":[2.0759422E-3,-2.678241E-2,7.984452E-2,-5.3651407E-3,8.775571E-2],"categories":[],"categories_nodes":[],"categories_segments":[],"categories_sizes":[],"default_left":[0,0,0,0,0],"id":68,"left_children":[1,3,-1,-1,-1],"loss_changes":[2.2281957E0,2.3222525E0,0E0,0E0,0E0],"parents":[2147483647,0,0,1,1],"right_children":[2,4,-1,-1,-1],"split_conditions":[1E0,1E0,7.984452E-2,-5.3651407E-3,8.775571E-2],"split_indices":[24,27,0,0,0],"split_type":[0,0,0,0,0],"sum_hessian":[9.502387E1,9.2633446E1,2.3904262E0,9.087414E1,1.7593046E0],"tree_param":{"num_deleted":"0","num_feature":"39","num_nodes":"5","size_leaf_vector":"1"}},{"base_weights":[3.6573175E-3,3.149339E-2,-7.836895E-1,-6.054694E-3,3.425805E-2,1.83852E-2,-1.2997346E-1],"categories":[],"categories_nodes":[],"categories_segments":[],"categories_sizes":[],"default_left":[0,0,0,0,0,0,0],"id":69,"left_children":[1,3,5,-1,-1,-1,-1],"loss_changes":[2.1273267E0,2.7014275E0,1.8939426E0,0E0,0E0,0E0,0E0],"parents":[2147483647,0,0,1,1,2,2],"right_children":[2,4,6,-1,-1,-1,-1],"split_conditions":[1E0,1.5089189E0,6.32404E-2,-6.054694E-3,3.425805E-2,1.83852E-2,-1.2997346E-1],"split_indices":[17,30,35,0,0,0,0],"split_type":[0,0,0,0,0,0,0],"sum_hessian":[9.493831E1,9.2623665E1,2.3146417E0,7.209772E1,2.0525948E1,1.029028E0,1.2856135E0],"tree_param":{"num_deleted":"0","num_feature":"39","num_nodes":"7","size_leaf_vector":"1"}},{"base_weights":[2.5514732E-3,-2.3448778E-2,8.526121E-2,-5.456824E-3,7.332557E-2],"categories":[],"categories_nodes":[],"categories_segments":[],"categories_sizes":[],"default_left":[0,0,0,0,0],"id":70,"left_children":[1,3,-1,-1,-1],"loss_changes":[2.132073E0,2.2464492E0,0E0,0E0,0E0],"parents":[2147483647,0,0,1,1],"right_children":[2,4,-1,-1,-1],"split_conditions":[1E0,1E0,8.526121E-2,-5.456824E-3,7.332557E-2],"split_indices":[22,4,0,0,0],"split_type":[0,0,0,0,0],"sum_hessian":[9.456151E1,9.269861E1,1.862897E0,8.99282E1,2.770409E0],"tree_param":{"num_deleted":"0","num_feature":"39","num_nodes":"5","size_leaf_vector":"1"}},{"base_weights":[3.98411E-3,4.9366917E-2,-4.5339623E-1,-4.7089555E-3,4.021762E-2,2.5658274E-2,-1.06381945E-1],"categories":[],"categories_nodes":[],"categories_segments":[],"categories_sizes":[],"default_left":[0,0,0,0,0,0,0],"id":71,"left_children":[1,3,5,-1,-1,-1,-1],"loss_changes":[2.0047061E0,3.0062168E0,4.05154E0,0E0,0E0,0E0,0E0],"parents":[2147483647,0,0,1,1,2,2],"right_children":[2,4,6,-1,-1,-1,-1],"split_conditions":[1E0,7.027019E-1,1.0642087E0,-4.7089555E-3,4.021762E-2,2.5658274E-2,-1.06381945E-1],"split_indices":[23,36,36,0,0,0,0],"split_type":[0,0,0,0,0,0,0],"sum_hessian":[9.4500496E1,8.6781784E1,7.7187123E0,6.883039E1,1.7951391E1,3.8363473E0,3.882365E0],"tree_param":{"num_deleted":"0","num_feature":"39","num_nodes":"7","size_leaf_vector":"1"}},{"base_weights":[3.146053E-3,4.878673E-2,-4.5767105E-1,1.0525154E-2,-4.7790542E-2,-7.136234E-2,5.9639793E-2],"categories":[],"categories_nodes":[],"categories_segments":[],"categories_sizes":[],"default_left":[0,0,0,0,0,0,0],"id":72,"left_children":[1,3,5,-1,-1,-1,-1],"loss_changes":[2.0260308E0,2.6551142E0,2.7678647E0,0E0,0E0,0E0,0E0],"parents":[2147483647,0,0,1,1,2,2],"right_children":[2,4,6,-1,-1,-1,-1],"split_conditions":[1E0,3.4071536E0,4.0240848E-1,1.0525154E-2,-4.7790542E-2,-7.136234E-2,5.9639793E-2],"split_indices":[26,31,35,0,0,0,0],"split_type":[0,0,0,0,0,0,0],"sum_hessian":[9.426922E1,8.658747E1,7.681747E0,7.892623E1,7.661238E0,6.440763E0,1.2409842E0],"tree_param":{"num_deleted":"0","num_feature":"39","num_nodes":"7","size_leaf_vector":"1"}},{"base_weights":[2.3098968E-3,3.5320446E-2,-6.34063E-1,-2.0499518E-3,5.135718E-2,-8.6677484E-2,1.0506953E-2],"categories":[],"categories_nodes":[],"categories_segments":[],"categories_sizes":[],"default_left":[0,0,0,0,0,0,0],"id":73,"left_children":[1,3,5,-1,-1,-1,-1],"loss_changes":[2.016096E0,2.4444892E0,9.0518117E-1,0E0,0E0,0E0,0E0],"parents":[2147483647,0,0,1,1,2,2],"right_children":[2,4,6,-1,-1,-1,-1],"split_conditions":[1E0,2.021811E0,-3.482627E-1,-2.0499518E-3,5.135718E-2,-8.6677484E-2,1.0506953E-2],"split_indices":[15,29,37,0,0,0,0],"split_type":[0,0,0,0,0,0,0],"sum_hessian":[9.390641E1,9.017335E1,3.7330616E0,8.160573E1,8.567622E0,2.707826E0,1.0252358E0],"tree_param":{"num_deleted":"0","num_feature":"39","num_nodes":"7","size_leaf_vector":"1"}},{"base_weights":[1.8260966E-3,5.841992E-1,-3.4856465E-2,8.69039E-2,-1.6518734E-2,-7.561535E-2,2.7556167E-4],"categories":[],"categories_nodes":[],"categories_segments":[],"categories_sizes":[],"default_left":[0,0,0,0,0,0,0],"id":74,"left_children":[1,3,5,-1,-1,-1,-1],"loss_changes":[2.0405307E0,1.3516607E0,2.4411423E0,0E0,0E0,0E0,0E0],"parents":[2147483647,0,0,1,1,2,2],"right_children":[2,4,6,-1,-1,-1,-1],"split_conditions":[-1.3387487E0,1.5089189E0,-1.3651547E0,8.69039E-2,-1.6518734E-2,-7.561535E-2,2.7556167E-4],"split_indices":[36,30,35,0,0,0,0],"split_type":[0,0,0,0,0,0,0],"sum_hessian":[9.356413E1,4.659767E0,8.8904366E1,3.2607121E0,1.399055E0,3.4593563E0,8.5445015E1],"tree_param":{"num_deleted":"0","num_feature":"39","num_nodes":"7","size_leaf_vector":"1"}},{"base_weights":[1.6560628E-3,3.7441876E-2,-5.914681E-1,4.4220846E-4,8.517838E-2,-9.280661E-3,-8.9356646E-2],"categories":[],"categories_nodes":[],"categories_segments":[],"categories_sizes":[],"default_left":[0,0,0,0,0,0,0],"id":75,"left_children":[1,3,5,-1,-1,-1,-1],"loss_changes":[2.029629E0,2.4199886E0,7.367618E-1,0E0,0E0,0E0,0E0],"parents":[2147483647,0,0,1,1,2,2],"right_children":[2,4,6,-1,-1,-1,-1],"split_conditions":[1E0,1.7343088E0,-6.284207E-2,4.4220846E-4,8.517838E-2,-9.280661E-3,-8.9356646E-2],"split_indices":[20,35,36,0,0,0,0],"split_type":[0,0,0,0,0,0,0],"sum_hessian":[9.357916E1,8.913795E1,4.4412146E0,8.663069E1,2.5072556E0,2.168676E0,2.2725387E0],"tree_param":{"num_deleted":"0","num_feature":"39","num_nodes":"7","size_leaf_vector":"1"}},{"base_weights":[1.392695E-3,-2.3241522E-2,8.4798835E-2,-7.578339E-3,4.11597E-2],"categories":[],"categories_nodes":[],"categories_segments":[],"categories_sizes":[],"default_left":[0,0,0,0,0],"id":76,"left_children":[1,3,-1,-1,-1],"loss_changes":[1.9875873E0,2.148316E0,0E0,0E0,0E0],"parents":[2147483647,0,0,1,1],"right_children":[2,4,-1,-1,-1],"split_conditions":[1E0,1E0,8.4798835E-2,-7.578339E-3,4.11597E-2],"split_indices":[27,7,0,0,0],"split_type":[0,0,0,0,0],"sum_hessian":[9.3359055E1,9.166435E1,1.6946996E0,8.251922E1,9.145138E0],"tree_param":{"num_deleted":"0","num_feature":"39","num_nodes":"5","size_leaf_vector":"1"}},{"base_weights":[2.581473E-3,-2.4038788E-2,7.692959E-2,-6.4399997E-3,5.202043E-2],"categories":[],"categories_nodes":[],"categories_segments":[],"categories_sizes":[],"default_left":[0,0,0,0,0],"id":77,"left_children":[1,3,-1,-1,-1],"loss_changes":[1.9430596E0,2.0566044E0,0E0,0E0,0E0],"parents":[2147483647,0,0,1,1],"right_children":[2,4,-1,-1,-1],"split_conditions":[1E0,3.8308845E0,7.692959E-2,-6.4399997E-3,5.202043E-2],"split_indices":[24,32,0,0,0],"split_type":[0,0,0,0,0],"sum_hessian":[9.329465E1,9.1100296E1,2.1943479E0,8.5631516E1,5.4687843E0],"tree_param":{"num_deleted":"0","num_feature":"39","num_nodes":"5","size_leaf_vector":"1"}},{"base_weights":[3.7268703E-3,3.021998E-1,-6.436952E-2,6.489636E-2,-1.928238E-2,-5.7798244E-2,4.2735124E-3],"categories":[],"categories_nodes":[],"categories_segments":[],"categories_sizes":[],"default_left":[0,0,0,0,0,0,0],"id":78,"left_children":[1,3,5,-1,-1,-1,-1],"loss_changes":[1.9331213E0,3.157656E0,4.287315E0,0E0,0E0,0E0,0E0],"parents":[2147483647,0,0,1,1,2,2],"right_children":[2,4,6,-1,-1,-1,-1],"split_conditions":[-6.899199E-1,-6.7953026E-1,-3.7228265E-1,6.489636E-2,-1.928238E-2,-5.7798244E-2,4.2735124E-3],"split_indices":[35,36,35,0,0,0,0],"split_type":[0,0,0,0,0,0,0],"sum_hessian":[9.315377E1,1.6666239E1,7.6487526E1,9.617918E0,7.048321E0,1.24393E1,6.4048225E1],"tree_param":{"num_deleted":"0","num_feature":"39","num_nodes":"7","size_leaf_vector":"1"}},{"base_weights":[3.4078374E-3,-2.087021E-2,8.2141444E-2,-4.9990686E-3,6.9862664E-2],"categories":[],"categories_nodes":[],"categories_segments":[],"categories_sizes":[],"default_left":[0,0,0,0,0],"id":79,"left_children":[1,3,-1,-1,-1],"loss_changes":[1.8843987E0,1.9685491E0,0E0,0E0,0E0],"parents":[2147483647,0,0,1,1],"right_children":[2,4,-1,-1,-1],"split_conditions":[1E0,1E0,8.2141444E-2,-4.9990686E-3,6.9862664E-2],"split_indices":[22,4,0,0,0],"split_type":[0,0,0,0,0],"sum_hessian":[9.3022804E1,9.12879E1,1.7348953E0,8.863122E1,2.6566856E0],"tree_param":{"num_deleted":"0","num_feature":"39","num_nodes":"5","size_leaf_vector":"1"}},{"base_weights":[4.7086775E-3,3.1367704E-2,-7.2738093E-1,-5.2433736E-3,3.1650033E-2,1.7634565E-2,-1.1996038E-1],"categories":[],"categories_nodes":[],"categories_segments":[],"categories_sizes":[],"default_left":[0,0,0,0,0,0,0],"id":80,"left_children":[1,3,5,-1,-1,-1,-1],"loss_changes":[1.8566122E0,2.2057452E0,1.6380643E0,0E0,0E0,0E0,0E0],"parents":[2147483647,0,0,1,1,2,2],"right_children":[2,4,6,-1,-1,-1,-1],"split_conditions":[1E0,1.5089189E0,6.32404E-2,-5.2433736E-3,3.1650033E-2,1.7634565E-2,-1.1996038E-1],"split_indices":[17,30,35,0,0,0,0],"split_type":[0,0,0,0,0,0,0],"sum_hessian":[9.295988E1,9.061721E1,2.3426704E0,7.066472E1,1.995249E1,1.0190344E0,1.3236362E0],"tree_param":{"num_deleted":"0","num_feature":"39","num_nodes":"7","size_leaf_vector":"1"}},{"base_weights":[3.5391813E-3,-1.9971946E-2,8.229075E-2,-7.006249E-3,3.954114E-2],"categories":[],"categories_nodes":[],"categories_segments":[],"categories_sizes":[],"default_left":[0,0,0,0,0],"id":81,"left_children":[1,3,-1,-1,-1],"loss_changes":[1.8196301E0,1.9412701E0,0E0,0E0,0E0],"parents":[2147483647,0,0,1,1],"right_children":[2,4,-1,-1,-1],"split_conditions":[1E0,1E0,8.229075E-2,-7.006249E-3,3.954114E-2],"split_indices":[27,7,0,0,0],"split_type":[0,0,0,0,0],"sum_hessian":[9.2603065E1,9.096843E1,1.634642E0,8.1921005E1,9.047419E0],"tree_param":{"num_deleted":"0","num_feature":"39","num_nodes":"5","size_leaf_vector":"1"}},{"base_weights":[4.4827084E-3,3.9297245E-2,-5.3042597E-1,-8.249422E-4,5.491465E-2,-6.658801E-3,-9.636709E-2],"categories":[],"categories_nodes":[],"categories_segments":[],"categories_sizes":[],"default_left":[0,0,0,0,0,0,0],"id":82,"left_children":[1,3,5,-1,-1,-1,-1],"loss_changes":[1.7625965E0,2.155845E0,1.0982232E0,0E0,0E0,0E0,0E0],"parents":[2147483647,0,0,1,1,2,2],"right_children":[2,4,6,-1,-1,-1,-1],"split_conditions":[1E0,2.021811E0,-4.496051E-1,-8.249422E-4,5.491465E-2,-6.658801E-3,-9.636709E-2],"split_indices":[16,29,37,0,0,0,0],"split_type":[0,0,0,0,0,0,0],"sum_hessian":[9.252898E1,8.7744644E1,4.7843266E0,8.1159805E1,6.5848455E0,2.86776E0,1.9165666E0],"tree_param":{"num_deleted":"0","num_feature":"39","num_nodes":"7","size_leaf_vector":"1"}},{"base_weights":[3.577091E-3,-1.7911993E-1,1.0600336E-1,-3.314158E-2,6.006038E-2,5.8047945E-4,6.796835E-2],"categories":[],"categories_nodes":[],"categories_segments":[],"categories_sizes":[],"default_left":[0,0,0,0,0,0,0],"id":83,"left_children":[1,3,5,-1,-1,-1,-1],"loss_changes":[1.762609E0,4.218012E0,3.4641047E0,0E0,0E0,0E0,0E0],"parents":[2147483647,0,0,1,1,2,2],"right_children":[2,4,6,-1,-1,-1,-1],"split_conditions":[-5.4758E-1,2.021811E0,1E0,-3.314158E-2,6.006038E-2,5.8047945E-4,6.796835E-2],"split_indices":[37,29,7,0,0,0,0],"split_type":[0,0,0,0,0,0,0],"sum_hessian":[9.2177155E1,3.2844276E1,5.933288E1,2.7958393E1,4.885883E0,5.137064E1,7.96224E0],"tree_param":{"num_deleted":"0","num_feature":"39","num_nodes":"7","size_leaf_vector":"1"}},{"base_weights":[4.461381E-3,-2.036923E-2,7.451538E-2,-4.4137044E-3,7.972794E-2],"categories":[],"categories_nodes":[],"categories_segments":[],"categories_sizes":[],"default_left":[0,0,0,0,0],"id":84,"left_children":[1,3,-1,-1,-1],"loss_changes":[1.7244195E0,1.8015915E0,0E0,0E0,0E0],"parents":[2147483647,0,0,1,1],"right_children":[2,4,-1,-1,-1],"split_conditions":[1E0,1E0,7.451538E-2,-4.4137044E-3,7.972794E-2],"split_indices":[24,22,0,0,0],"split_type":[0,0,0,0,0],"sum_hessian":[9.193474E1,8.9893684E1,2.0410526E0,8.827372E1,1.6199644E0],"tree_param":{"num_deleted":"0","num_feature":"39","num_nodes":"5","size_leaf_vector":"1"}},{"base_weights":[5.7166E-3,-1.9734487E-2,7.088697E-2,-5.7909745E-3,4.959747E-2],"categories":[],"categories_nodes":[],"categories_segments":[],"categories_sizes":[],"default_left":[0,0,0,0,0],"id":85,"left_children":[1,3,-1,-1,-1],"loss_changes":[1.6754059E0,1.8117489E0,0E0,0E0,0E0],"parents":[2147483647,0,0,1,1],"right_children":[2,4,-1,-1,-1],"split_conditions":[1E0,3.8308845E0,7.088697E-2,-5.7909745E-3,4.959747E-2],"split_indices":[25,32,0,0,0],"split_type":[0,0,0,0,0],"sum_hessian":[9.183726E1,8.9567245E1,2.270011E0,8.422055E1,5.3466988E0],"tree_param":{"num_deleted":"0","num_feature":"39","num_nodes":"5","size_leaf_vector":"1"}},{"base_weights":[6.4507555E-3,6.33693E-2,-3.0994606E-1,-9.213329E-3,5.642497E-2,4.492295E-3,-1.4124733E-1],"categories":[],"categories_nodes":[],"categories_segments":[],"categories_sizes":[],"default_left":[0,0,0,0,0,0,0],"id":86,"left_children":[1,3,5,-1,-1,-1,-1],"loss_changes":[1.6900716E0,6.2397404E0,5.663085E0,0E0,0E0,0E0,0E0],"parents":[2147483647,0,0,1,1,2,2],"right_children":[2,4,6,-1,-1,-1,-1],"split_conditions":[1E0,2.9540458E-1,9.52383E-1,-9.213329E-3,5.642497E-2,4.492295E-3,-1.4124733E-1],"split_indices":[6,37,37,0,0,0,0],"split_type":[0,0,0,0,0,0,0],"sum_hessian":[9.17561E1,7.8444046E1,1.3312059E1,6.0482727E1,1.7961319E1,1.0796317E1,2.515742E0],"tree_param":{"num_deleted":"0","num_feature":"39","num_nodes":"7","size_leaf_vector":"1"}},{"base_weights":[5.0393525E-3,-2.1810174E-2,6.8010664E-1,-2.1543521E-2,8.57323E-3,7.9278044E-2,2.1628253E-2],"categories":[],"categories_nodes":[],"categories_segments":[],"categories_sizes":[],"default_left":[0,0,0,0,0,0,0],"id":87,"left_children":[1,3,5,-1,-1,-1,-1],"loss_changes":[1.6928905E0,1.8927152E0,1.5235186E-2,0E0,0E0,0E0,0E0],"parents":[2147483647,0,0,1,1,2,2],"right_children":[2,4,6,-1,-1,-1,-1],"split_conditions":[1E0,-5.4758E-1,-5.55967E-1,-2.1543521E-2,8.57323E-3,7.9278044E-2,2.1628253E-2],"split_indices":[4,37,37,0,0,0,0],"split_type":[0,0,0,0,0,0,0],"sum_hessian":[9.158126E1,8.90088E1,2.572465E0,3.1425482E1,5.7583317E1,1.4990772E0,1.0733877E0],"tree_param":{"num_deleted":"0","num_feature":"39","num_nodes":"7","size_leaf_vector":"1"}},{"base_weights":[5.542508E-3,-1.672689E-2,7.947785E-2,2.7192011E-2,-8.203871E-3],"categories":[],"categories_nodes":[],"categories_segments":[],"categories_sizes":[],"default_left":[0,0,0,0,0],"id":88,"left_children":[1,3,-1,-1,-1],"loss_changes":[1.6409365E0,1.7386941E0,0E0,0E0,0E0],"parents":[2147483647,0,0,1,1],"right_children":[2,4,-1,-1,-1],"split_conditions":[1E0,-6.899199E-1,7.947785E-2,2.7192011E-2,-8.203871E-3],"split_indices":[27,35,0,0,0],"split_type":[0,0,0,0,0],"sum_hessian":[9.1606964E1,9.004502E1,1.5619404E0,1.603123E1,7.4013794E1],"tree_param":{"num_deleted":"0","num_feature":"39","num_nodes":"5","size_leaf_vector":"1"}},{"base_weights":[6.115872E-3,3.5540704E-2,-5.777792E-1,-1.3741822E-3,4.8032537E-2,1.002563E-2,-8.423619E-2],"categories":[],"categories_nodes":[],"categories_segments":[],"categories_sizes":[],"default_left":[0,0,0,0,0,0,0],"id":89,"left_children":[1,3,5,-1,-1,-1,-1],"loss_changes":[1.6101947E0,1.9580892E0,8.911836E-1,0E0,0E0,0E0,0E0],"parents":[2147483647,0,0,1,1,2,2],"right_children":[2,4,6,-1,-1,-1,-1],"split_conditions":[1E0,2.021811E0,-4.7765228E-1,-1.3741822E-3,4.8032537E-2,1.002563E-2,-8.423619E-2],"split_indices":[15,29,35,0,0,0,0],"split_type":[0,0,0,0,0,0,0],"sum_hessian":[9.152423E1,8.802731E1,3.4969203E0,8.011915E1,7.908166E0,1.1558772E0,2.3410432E0],"tree_param":{"num_deleted":"0","num_feature":"39","num_nodes":"7","size_leaf_vector":"1"}},{"base_weights":[5.227472E-3,3.8795166E-2,-5.098963E-1,1.0192776E-2,-2.8933397E-2,-5.6063877E-3,-9.400068E-2],"categories":[],"categories_nodes":[],"categories_segments":[],"categories_sizes":[],"default_left":[0,0,0,0,0,0,0],"id":90,"left_children":[1,3,5,-1,-1,-1,-1],"loss_changes":[1.6138189E0,1.8416055E0,1.0619668E0,0E0,0E0,0E0,0E0],"parents":[2147483647,0,0,1,1,2,2],"right_children":[2,4,6,-1,-1,-1,-1],"split_conditions":[1E0,1E0,-4.496051E-1,1.0192776E-2,-2.8933397E-2,-5.6063877E-3,-9.400068E-2],"split_indices":[16,6,37,0,0,0,0],"split_type":[0,0,0,0,0,0,0],"sum_hessian":[9.118609E1,8.647565E1,4.71044E0,7.310038E1,1.3375268E1,2.8420208E0,1.8684193E0],"tree_param":{"num_deleted":"0","num_feature":"39","num_nodes":"7","size_leaf_vector":"1"}},{"base_weights":[3.4173662E-3,-2.0146135E-2,7.269376E-2,-4.2507364E-3,7.722949E-2],"categories":[],"categories_nodes":[],"categories_segments":[],"categories_sizes":[],"default_left":[0,0,0,0,0],"id":91,"left_children":[1,3,-1,-1,-1],"loss_changes":[1.582295E0,1.6280547E0,0E0,0E0,0E0],"parents":[2147483647,0,0,1,1],"right_children":[2,4,-1,-1,-1],"split_conditions":[1E0,1E0,7.269376E-2,-4.2507364E-3,7.722949E-2],"split_indices":[24,22,0,0,0],"split_type":[0,0,0,0,0],"sum_hessian":[9.0951454E1,8.9024284E1,1.9271746E0,8.750151E1,1.5227729E0],"tree_param":{"num_deleted":"0","num_feature":"39","num_nodes":"5","size_leaf_vector":"1"}},{"base_weights":[4.7404575E-3,4.573976E-2,-4.044952E-1,9.998991E-3,-4.5624167E-2,-7.801114E-2,3.16036E-2],"categories":[],"categories_nodes":[],"categories_segments":[],"categories_sizes":[],"default_left":[0,0,0,0,0,0,0],"id":92,"left_children":[1,3,5,-1,-1,-1,-1],"loss_changes":[1.5598036E0,2.3439295E0,2.5380158E0,0E0,0E0,0E0,0E0],"parents":[2147483647,0,0,1,1,2,2],"right_children":[2,4,6,-1,-1,-1,-1],"split_conditions":[1E0,3.4071536E0,-2.6324242E-2,9.998991E-3,-4.5624167E-2,-7.801114E-2,3.16036E-2],"split_indices":[26,31,35,0,0,0,0],"split_type":[0,0,0,0,0,0,0],"sum_hessian":[9.086241E1,8.3395645E1,7.4667664E0,7.598464E1,7.411004E0,4.8537803E0,2.6129863E0],"tree_param":{"num_deleted":"0","num_feature":"39","num_nodes":"7","size_leaf_vector":"1"}},{"base_weights":[3.3569464E-3,3.5413668E-2,-5.265845E-1,-6.7375274E-3,2.7294246E-2,2.6700736E-3,-7.9571396E-2],"categories":[],"categories_nodes":[],"categories_segments":[],"categories_sizes":[],"default_left":[0,0,0,0,0,0,0],"id":93,"left_children":[1,3,5,-1,-1,-1,-1],"loss_changes":[1.57372E0,2.148725E0,8.0812466E-1,0E0,0E0,0E0,0E0],"parents":[2147483647,0,0,1,1,2,2],"right_children":[2,4,6,-1,-1,-1,-1],"split_conditions":[1E0,3.5475844E-1,-3.2865596E-1,-6.7375274E-3,2.7294246E-2,2.6700736E-3,-7.9571396E-2],"split_indices":[20,35,36,0,0,0,0],"split_type":[0,0,0,0,0,0,0],"sum_hessian":[9.053842E1,8.6254E1,4.2844214E0,6.0701984E1,2.5552015E1,1.6968238E0,2.5875978E0],"tree_param":{"num_deleted":"0","num_feature":"39","num_nodes":"7","size_leaf_vector":"1"}},{"base_weights":[2.435252E-3,6.4133286E-1,-2.3625672E-2,8.640988E-2,4.5513343E-3,1.0199733E-3,-7.172791E-2],"categories":[],"categories_nodes":[],"categories_segments":[],"categories_sizes":[],"default_left":[0,0,0,0,0,0,0],"id":94,"left_children":[1,3,5,-1,-1,-1,-1],"loss_changes":[1.5354366E0,4.4035375E-1,2.0883276E0,0E0,0E0,0E0,0E0],"parents":[2147483647,0,0,1,1,2,2],"right_children":[2,4,6,-1,-1,-1,-1],"split_conditions":[-1.5513998E0,-1.4056745E0,1E0,8.640988E-2,4.5513343E-3,1.0199733E-3,-7.172791E-2],"split_indices":[36,35,15,0,0,0,0],"split_type":[0,0,0,0,0,0,0],"sum_hessian":[9.0306946E1,2.6140134E0,8.769293E1,1.574913E0,1.0391004E0,8.455498E1,3.1379547E0],"tree_param":{"num_deleted":"0","num_feature":"39","num_nodes":"7","size_leaf_vector":"1"}},{"base_weights":[2.4098456E-3,2.7534144E-2,-6.612379E-1,-5.5054114E-3,3.0336073E-2,1.7966425E-2,-1.10279515E-1],"categories":[],"categories_nodes":[],"categories_segments":[],"categories_sizes":[],"default_left":[0,0,0,0,0,0,0],"id":95,"left_children":[1,3,5,-1,-1,-1,-1],"loss_changes":[1.5374118E0,2.038439E0,1.4470345E0,0E0,0E0,0E0,0E0],"parents":[2147483647,0,0,1,1,2,2],"right_children":[2,4,6,-1,-1,-1,-1],"split_conditions":[1E0,1.5089189E0,6.32404E-2,-5.5054114E-3,3.0336073E-2,1.7966425E-2,-1.10279515E-1],"split_indices":[17,30,35,0,0,0,0],"split_type":[0,0,0,0,0,0,0],"sum_hessian":[9.011395E1,8.775042E1,2.3635342E0,6.814637E1,1.9604048E1,1.0179884E0,1.3455459E0],"tree_param":{"num_deleted":"0","num_feature":"39","num_nodes":"7","size_leaf_vector":"1"}},{"base_weights":[1.5156448E-3,-1.9767782E-2,7.647356E-2,-4.58047E-3,6.4129286E-2],"categories":[],"categories_nodes":[],"categories_segments":[],"categories_sizes":[],"default_left":[0,0,0,0,0],"id":96,"left_children":[1,3,-1,-1,-1],"loss_changes":[1.489531E0,1.5660485E0,0E0,0E0,0E0],"parents":[2147483647,0,0,1,1],"right_children":[2,4,-1,-1,-1],"split_conditions":[1E0,1E0,7.647356E-2,-4.58047E-3,6.4129286E-2],"split_indices":[27,4,0,0,0],"split_type":[0,0,0,0,0],"sum_hessian":[8.976704E1,8.827934E1,1.4876902E0,8.582952E1,2.449821E0],"tree_param":{"num_deleted":"0","num_feature":"39","num_nodes":"5","size_leaf_vector":"1"}},{"base_weights":[2.924023E-3,3.4787904E-2,-4.8367506E-1,-1.5111677E-2,1.38285905E-2,3.709747E-3,-8.085752E-2],"categories":[],"categories_nodes":[],"categories_segments":[],"categories_sizes":[],"default_left":[0,0,0,0,0,0,0],"id":97,"left_children":[1,3,5,-1,-1,-1,-1],"loss_changes":[1.4233761E0,1.677025E0,9.846802E-1,0E0,0E0,0E0,0E0],"parents":[2147483647,0,0,1,1,2,2],"right_children":[2,4,6,-1,-1,-1,-1],"split_conditions":[1E0,-5.4758E-1,-5.023095E-1,-1.5111677E-2,1.38285905E-2,3.709747E-3,-8.085752E-2],"split_indices":[16,37,37,0,0,0,0],"split_type":[0,0,0,0,0,0,0],"sum_hessian":[8.971628E1,8.5073906E1,4.6423717E0,3.0260124E1,5.4813786E1,2.123883E0,2.5184884E0],"tree_param":{"num_deleted":"0","num_feature":"39","num_nodes":"7","size_leaf_vector":"1"}},{"base_weights":[1.7656118E-3,-1.8846545E-2,7.491697E-2,4.9961645E-2,-5.0939796E-3],"categories":[],"categories_nodes":[],"categories_segments":[],"categories_sizes":[],"default_left":[0,0,0,0,0],"id":98,"left_children":[1,3,-1,-1,-1],"loss_changes":[1.4099338E0,1.5088001E0,0E0,0E0,0E0],"parents":[2147483647,0,0,1,1],"right_children":[2,4,-1,-1,-1],"split_conditions":[1E0,-1.3387487E0,7.491697E-2,4.9961645E-2,-5.0939796E-3],"split_indices":[22,36,0,0,0],"split_type":[0,0,0,0,0],"sum_hessian":[8.9604294E1,8.81481E1,1.4561936E0,4.2891817E0,8.385892E1],"tree_param":{"num_deleted":"0","num_feature":"39","num_nodes":"5","size_leaf_vector":"1"}},{"base_weights":[2.9682154E-3,-1.8577164E-2,6.9689035E-2,-6.1182077E-3,3.7884235E-2],"categories":[],"categories_nodes":[],"categories_segments":[],"categories_sizes":[],"default_left":[0,0,0,0,0],"id":99,"left_children":[1,3,-1,-1,-1],"loss_changes":[1.3668153E0,1.5267749E0,0E0,0E0,0E0],"parents":[2147483647,0,0,1,1],"right_children":[2,4,-1,-1,-1],"split_conditions":[1E0,2.021811E0,6.9689035E-2,-6.1182077E-3,3.7884235E-2],"split_indices":[24,29,0,0,0],"split_type":[0,0,0,0,0],"sum_hessian":[8.9554855E1,8.780195E1,1.7529075E0,8.006475E1,7.737199E0],"tree_param":{"num_deleted":"0","num_feature":"39","num_nodes":"5","size_leaf_vector":"1"}}]},"name":"gbtree"},"learner_model_param":{"base_score":"[7.051724E-1]","boost_from_average":"1","num_class":"0","num_feature":"39","num_target":"1"},"objective":{"name":"binary:logistic","reg_loss_param":{"scale_pos_weight":"1"}}},"version":[3,3,0]}